Replicate,Generation,Individual,b2,b3,b4,b5,b6,b7,b8,b9,b10,w12,w13,w14,w15,w26,w27,w28,w29,w36,w37,w38,w39,w46,w47,w48,w49,w56,w57,w58,w59,w610,w710,w810,w910,new_w610,new_w710,new_w810,new_w910
0,0,0,-0.81794,0.00499996,0.347103,0.354216,-0.244196,-0.225665,-0.714491,-0.0836201,-0.183009,0.981113,0.305273,0.922833,-0.867222,-0.030142,0.253512,0.15588,0.312297,-0.239309,-0.354439,-0.655854,0.150429,0.0230409,-0.273536,-0.254418,-0.743994,0.924291,0.0625819,-0.284765,0.763803,0.823548,0.484062,0.962719,0.436853,0.650242,0.484062,0.962719,0.259392
0,0,1,-0.0275598,-0.902506,0.888622,0.633372,-0.492097,0.42915,-0.0457922,-0.589396,0.293755,-0.24467,0.0947556,0.650123,-0.810267,0.67085,0.374433,0.598705,-0.644666,-0.0896977,-0.702783,-0.887823,0.0691245,0.764806,-0.183052,0.746985,0.96451,-0.795978,0.00766125,-0.366898,0.918543,0.682416,0.357226,-0.349667,0.0161317,0.459557,-0.207293,0.144293,-0.182083
0,0,2,0.36396,0.351321,0.438546,0.985033,0.641239,-0.779811,0.804815,-0.0229519,-0.0702371,-0.940292,-0.0659274,-0.31174,0.626698,-0.518942,-0.958015,-0.909426,0.889104,0.216735,-0.844084,-0.493378,0.576302,0.741383,0.226882,-0.265467,-0.780331,-0.200519,-0.982392,0.83831,0.307029,0.0761594,0.546515,-0.704004,0.132808,0.329751,0.546515,0.102499,0.0343043
0,0,3,0.388157,0.602645,-0.694678,0.0161846,-0.568022,0.431592,0.145471,-0.157234,-0.424592,-0.490864,-0.592606,-0.999486,0.49114,-0.861274,0.863788,0.217883,0.00236999,-0.137503,-0.287067,0.150197,-0.802672,-0.0814919,0.483745,0.881543,0.171895,-0.148836,-0.650542,0.890806,-0.363566,-0.941151,-0.198732,0.668615,0.101051,-0.941151,0.105964,0.908109,0.101051
0,0,4,0.126619,0.185392,0.515118,0.471307,-0.887246,-0.00026994,0.915667,0.0247944,-0.0282977,-0.242825,0.490111,-0.693464,-0.285428,0.230733,-0.741644,-0.987694,-0.0169176,0.577035,0.989953,-0.586172,0.252756,0.510021,-0.61717,-0.362019,0.737337,-0.561728,-0.701951,-0.916005,0.607784,-0.483644,-0.580953,0.83255,-0.883796,-0.483644,-0.576312,0.84933,-0.697374
0,0,5,-0.824118,0.167049,0.407661,0.0347808,-0.451042,-0.541294,-0.901345,0.777983,-0.0802731,0.326442,0.389821,0.284176,-0.916111,-0.0719679,-0.662535,-0.803686,0.509937,0.494537,-0.104071,0.183558,0.86405,0.14266,0.549009,0.202761,0.324795,-0.780735,-0.833341,0.0766401,0.619674,-0.142411,-0.542891,0.22043,-0.544858,-0.142411,-0.542891,0.22043,0.147486
0,0,6,-0.0262353,0.993802,-0.0924563,-0.147848,0.636536,-0.444209,-0.131232,-0.97492,0.735449,0.442595,0.373796,-0.0478856,-0.161742,-0.711418,-0.0702421,0.835022,0.339477,-0.608392,0.192791,0.811145,-0.565944,0.320511,0.480501,-0.557181,0.918591,-0.0822946,0.139906,-0.698123,0.201036,0.888497,-0.621619,-0.962837,0.464355,0.336167,-0.621619,-0.933447,0.464355
0,0,7,0.579349,-0.0486573,-0.637184,-0.0406578,-0.314488,-0.357727,-0.542168,0.629753,-0.745972,0.623175,-0.757087,-0.0410004,0.0830093,0.0500964,-0.431341,0.706702,0.99343,0.99178,0.766149,0.524739,0.898437,-0.302484,-0.385506,-0.952467,0.553996,-0.623797,-0.442738,0.97578,-0.387003,-0.561206,-0.746681,-0.919022,-0.127417,-0.564522,-0.744808,-0.904769,1.0013
0,0,8,-0.493508,0.868315,0.873405,-0.245091,0.409596,0.65605,-0.796785,-0.790594,0.266722,-0.444954,0.232975,-0.300307,-0.446492,-0.436085,-0.440432,0.0729453,0.21646,-0.0757907,0.214554,0.856991,-0.439416,0.165903,0.875691,-0.492431,-0.208971,0.183907,-0.366177,0.192401,-0.352979,0.0170611,-0.998926,-0.857983,-0.758313,0.276249,-0.392825,-0.857983,-0.758313
0,0,9,-0.0874471,0.962461,0.393766,-0.378658,-0.862556,-0.501775,-0.254105,-0.579662,0.58389,-0.11569,0.391419,-0.250756,0.26487,0.159575,-0.0932257,-0.141764,-0.717913,0.557006,-0.768607,-0.226225,-0.338644,0.273002,-0.564687,0.460769,-0.560084,-0.425393,-0.700504,0.937703,-0.352755,-0.734186,-0.589185,-0.590656,-0.745009,-0.734186,-0.589185,-0.590656,-0.745009
0,0,10,-0.802629,-0.527421,-0.795853,-0.991115,0.94145,0.337236,0.166219,0.531791,0.834072,-0.115637,-0.995416,0.337426,-0.530226,0.400239,0.890965,0.614451,0.571358,0.251196,-0.861642,-0.341177,0.404261,0.137325,-0.0622812,0.728634,0.966077,0.123976,-0.35774,-0.865346,0.642528,0.785889,0.851441,-0.75602,-0.664016,-0.0676415,0.581655,-0.892133,-1.15574
0,0,11,0.514419,-0.562338,0.107424,-0.277828,0.967781,0.924959,-0.170266,-0.363546,0.0453529,0.458121,0.522386,-0.812439,-0.929446,-0.929601,0.0732427,0.145279,0.275264,-0.722041,-0.53266,0.806843,0.0773628,0.0923203,-0.433094,0.114567,0.2017,0.303793,-0.115918,0.598241,-0.346474,-0.264148,-0.25944,-0.0464216,0.243655,-0.234441,0.408612,-0.161952,0.243655
0,0,12,-0.441981,-0.344877,0.041714,-0.1691,-0.494041,0.00972349,-0.935095,-0.680646,-0.0139792,-0.938741,-0.136985,-0.776419,0.470835,0.140296,-0.305689,-0.388276,-0.701878,0.393294,-0.954003,-0.292072,0.488022,0.220181,-0.79776,0.765911,-0.782754,-0.821084,-0.135021,-0.0750141,0.0802893,-0.783705,-0.52829,0.20467,-0.656457,-0.783705,-0.513567,0.20467,-0.656457
0,0,13,-0.188682,0.434939,-0.944522,0.673581,-0.918231,0.995892,0.075554,0.356843,-0.382598,-0.490237,-0.986076,-0.182677,-0.467422,-0.410549,0.850964,0.129853,0.550086,0.516059,0.28091,-0.742911,-0.305396,-0.313454,-0.742487,-0.927895,0.722316,0.776977,-0.143996,-0.45482,0.604972,0.307796,-0.887301,0.950726,0.81901,-0.0442898,-0.382846,0.950726,1.03432
0,0,14,-0.847515,0.0943134,0.0637482,0.486374,0.829908,-0.734296,-0.379829,0.871694,-0.0294807,-0.784707,0.152003,-0.519344,0.310595,0.73725,-0.407483,0.277507,-0.739782,-0.00450381,0.742849,0.289759,0.0872203,0.666199,-0.424889,0.285071,-0.125375,-0.630672,0.590762,-0.238983,0.408805,-0.237695,0.483895,0.54134,0.113233,-0.211272,0.483895,0.54134,0.330434
0,0,15,0.490513,0.165722,0.136292,0.0749834,0.153267,0.50198,-0.375045,-0.602689,0.0561025,0.0789766,0.564181,-0.893155,-0.462867,0.0619867,0.72637,-0.612323,-0.734828,-0.0320639,0.979273,0.0858708,0.763127,-0.865897,-0.863591,0.810195,-0.540804,-0.830977,-0.213596,0.726412,-0.997748,-0.938421,-0.398412,-0.855422,0.325147,-0.843247,0.347368,-0.783138,0.325147
0,0,16,0.780203,-0.881656,-0.694244,-0.75747,0.264826,-0.38729,0.769908,0.167142,0.106069,0.365917,0.22805,0.0898312,-0.822441,0.102892,0.967268,-0.965543,0.280259,-0.220034,-0.68738,-0.109819,0.449383,-0.528401,0.132311,0.471828,-0.996589,-0.991407,-0.526376,-0.418323,0.0431666,0.770264,-0.436777,0.436095,-0.628212,0.895628,-0.193554,0.353751,-0.466917
0,0,17,-0.568855,-0.0434242,0.857127,0.893157,0.372323,0.839875,-0.441523,0.117623,-0.374779,0.331443,-0.51747,0.434708,-0.570019,0.30523,-0.284565,0.821726,-0.682689,-0.515075,0.251757,-0.498917,0.182051,-0.654201,0.935404,-0.254509,-0.633443,0.513098,-0.81919,0.8106,-0.812763,-0.324147,0.131617,0.890749,0.30935,-0.100177,0.71878,0.935583,0.30935
0,0,18,0.4152,0.695195,0.308904,0.73836,0.913011,-0.658541,-0.125701,0.498782,-0.745025,0.534274,-0.122885,0.902916,0.57829,-0.226474,0.762441,0.476619,0.126337,0.425135,-0.259705,0.0714283,-0.487274,-0.0684026,-0.739206,0.918787,-0.154788,-0.285074,0.763033,-0.656436,0.315757,-0.771163,0.758438,0.324558,0.84097,0.517991,0.758438,0.305458,1.29859
0,0,19,0.410283,-0.472226,0.879227,-0.0184496,0.238255,-0.101387,0.662034,0.479803,0.541021,-0.7026,-0.937727,-0.651792,-0.654211,-0.43409,0.315103,-0.325795,0.870601,0.0460821,-0.285303,-0.0322125,-0.853164,-0.9309,0.800069,0.959085,0.2916,0.00777813,0.544103,0.648099,-0.528331,0.627798,-0.129468,-0.796611,0.0721027,0.627798,-0.158999,-0.607129,0.234121
0,0,20,0.186858,-0.963257,-0.681831,-0.182639,0.0253451,-0.408814,0.960719,0.135499,-0.321941,0.692852,-0.802821,0.962482,-0.034823,0.983387,0.617995,-0.680382,-0.762568,-0.0073471,0.849226,0.756018,0.414691,0.458485,0.310939,-0.337645,0.766727,-0.79537,0.572762,0.706504,0.959778,-0.202665,0.144628,-0.862573,0.936091,0.234528,0.145114,0.362121,1.01701
0,0,21,0.964859,0.840578,0.0345177,-0.372531,0.301049,-0.674213,-0.923568,-0.556932,-0.068186,-0.181427,-0.442189,-0.744225,0.961246,-0.903158,0.981135,-0.585989,-0.676137,-0.933384,-0.38299,0.238928,-0.57564,0.917461,-0.792325,-0.971562,-0.39204,-0.35202,0.896097,0.959491,0.781452,0.086553,0.275097,-0.333065,-0.512359,0.086553,0.297569,-0.333065,-0.512359
0,0,22,-0.834941,0.603221,0.936276,-0.767295,-0.578361,-0.67395,-0.228328,0.183892,0.338457,-0.44119,-0.237165,-0.991763,0.601808,0.968803,0.522569,-0.250489,-0.502952,-0.114636,-0.977774,0.988782,0.668907,-0.314661,0.618216,-0.317216,0.777878,0.354866,-0.00361297,-0.389163,-0.99777,0.227583,-0.172721,-0.430723,0.33272,0.227583,-0.172721,-0.636277,-0.133572
0,0,23,-0.626518,-0.742027,0.0438352,-0.174819,0.0958185,-0.62267,0.673624,0.606561,-0.566404,-0.442444,0.521525,0.480539,0.363772,-0.0190371,-0.653419,0.680995,-0.138298,-0.246721,0.0995352,-0.576021,0.305898,-0.755192,-0.893923,-0.269269,0.249694,0.0636736,0.549281,0.653039,0.848257,0.360017,-0.804626,0.575786,-0.746535,0.317692,-0.804626,1.08125,-0.204386
0,0,24,-0.797915,0.0697101,0.680613,-0.585766,-0.0509839,0.690453,0.836743,-0.218527,-0.45768,0.711481,-0.979977,0.468425,0.451867,-0.392331,0.766111,0.779745,-0.776182,0.0795493,-0.978846,-0.795539,-0.321627,0.422071,0.355145,-0.115106,-0.461692,0.622462,0.27955,-0.0746388,0.769379,-0.306538,-0.726628,0.742816,-0.682961,-0.0358163,-0.0799683,1.34791,-0.682961
0,0,25,0.146821,0.376552,-0.710399,-0.0650296,-0.762755,-0.149492,0.308697,-0.698664,0.341543,0.00796596,-0.255831,-0.42844,0.179576,0.0900587,-0.232469,0.199778,-0.669013,-0.304226,-0.765368,0.457503,0.188375,-0.549612,0.794806,0.326467,-0.506399,0.614845,0.739432,0.675249,0.978108,-0.185344,0.423092,0.952725,-0.190433,-0.185344,0.423092,-0.258197,-0.190433
0,0,26,-0.655493,-0.315621,-0.600283,-0.685388,-0.49384,0.65003,-0.742208,0.530764,-0.108439,-0.558637,-0.267915,0.8037,0.914122,-0.823289,0.942888,0.899272,-0.99058,0.269662,-0.177398,0.335618,-0.932367,-0.640151,0.0647741,0.191909,0.540341,0.698212,0.0610779,-0.710109,-0.618428,-0.955497,-0.549874,-0.522501,-0.872305,-0.955497,0.457701,-0.522501,-0.0473615
0,0,27,0.595055,0.657454,-0.158539,0.00982668,-0.4849,-0.232806,0.916177,-0.33222,-0.952683,-0.0267741,-0.257853,0.0187415,-0.397731,0.00631951,-0.952558,-0.636848,-0.392625,-0.755817,-0.362453,0.546508,0.304653,-0.481024,-0.806303,-0.0540867,-0.231277,0.797793,0.0686528,0.862441,-0.874131,0.280474,-0.0774499,0.702934,0.771472,0.280474,-0.0774499,1.10159,0.771472
0,0,28,0.697208,-0.628183,0.925616,-0.102686,0.596627,-0.207791,-0.593824,-0.70975,0.777582,0.810044,-0.765475,0.735934,-0.54411,0.931322,0.75285,0.727593,-0.844818,0.473854,0.708923,0.936992,0.636304,-0.734575,0.625291,-0.00685897,0.680169,-0.496514,-0.911387,0.0936646,-0.316523,0.267028,-0.314867,-0.207371,-0.187618,-0.221615,-0.372374,-0.240122,-0.187618
0,0,29,-0.523412,-0.213542,-0.828152,0.940115,-0.745198,-0.356799,0.352742,0.601828,0.551932,0.00383039,-0.616881,-0.79323,-0.346833,-0.549314,0.181251,0.475962,0.138142,-0.576715,-0.960887,0.71534,0.913079,0.0857085,-0.790693,0.558673,0.3694,-0.953344,-0.684392,0.560378,0.160361,-0.833326,0.581897,-0.602504,0.750726,-0.833326,0.581897,-0.781898,0.520963
0,0,30,0.583643,-0.733566,0.637559,-0.115416,-0.948344,-0.125833,-0.69586,-0.64409,0.546744,0.40717,0.249668,-0.112565,-0.922956,0.981228,-0.631771,0.822403,-0.596107,-0.16635,-0.802014,0.959296,0.556696,0.408863,0.572577,-0.862342,0.70928,-0.0538988,0.486629,0.148891,-0.778515,0.126444,-0.941127,-0.911155,-0.806776,-0.176111,-1.23138,-0.911155,-0.806776
0,0,31,0.227452,0.863268,-0.193183,-0.653477,-0.369764,-0.144893,0.245638,-0.965994,-0.44595,0.130647,0.547502,0.823928,0.547682,-0.0113328,-0.937334,0.0317215,-0.908672,-0.925459,0.0985605,-0.356637,0.530072,-0.411222,0.968277,-0.996987,-0.389764,0.382744,0.267353,0.726776,0.980171,0.926396,0.462649,-0.632403,0.470048,0.926396,0.500691,-0.418213,0.470048
0,0,32,-0.149517,-0.10213,-0.449082,-0.899769,-0.256153,0.75469,-0.724916,-0.264403,0.857818,-0.99172,-0.407766,0.778002,-0.917956,0.0665084,0.809916,0.728341,0.842382,0.124879,-0.794971,0.435433,0.37546,0.782227,0.832467,0.312419,0.424838,0.0395295,0.399993,-0.0783396,-0.536288,0.772582,-0.677312,0.904018,-0.769856,0.772582,-0.610537,0.904018,-0.708506
0,0,33,-0.787616,0.638205,-0.113178,-0.760731,0.860666,-0.543615,0.340581,-0.839822,0.917722,-0.897859,-0.048953,-0.191431,0.224381,0.539367,-0.687186,0.0653065,-0.402654,-0.367628,-0.763122,0.869528,0.689465,0.911069,0.438788,-0.158479,-0.1704,0.87141,-0.685415,0.512005,-0.436749,0.262808,0.0972851,0.404149,0.246156,-0.388484,0.0972851,-0.534735,0.246156
0,0,34,-0.846032,0.70109,0.517443,-0.858426,0.434677,0.376383,-0.938763,0.270701,0.0375111,-0.136138,0.869339,-0.84135,-0.226172,0.259467,0.0113855,-0.570302,0.561139,0.704794,0.19836,0.270792,-0.119492,0.818503,0.203832,0.220236,0.788595,0.149307,0.691558,-0.577728,0.833424,-0.06523,-0.910354,0.429471,-0.550179,0.433443,-0.514977,0.429471,0.165591
0,0,35,0.853574,0.488775,0.624245,0.52146,-0.378098,-0.969429,0.892227,0.689902,-0.200506,-0.673941,0.044028,-0.282134,0.790115,0.685261,-0.0346377,-0.0131362,-0.966267,-0.962252,-0.774826,0.907177,0.0948642,-0.254675,0.320975,0.560986,0.633806,0.0275781,-0.322084,-0.149829,0.868673,-0.679067,0.351703,0.544796,0.328664,-0.679067,0.351703,0.352766,0.208707
0,0,36,0.378169,0.478311,-0.0594813,0.490419,-0.0840609,-0.608603,0.823644,-0.738246,-0.936116,-0.198152,-0.2242,0.0178875,0.421065,-0.901281,0.307491,0.946221,0.90482,0.067282,0.972119,0.485442,-0.0509058,-0.466135,-0.914075,-0.284839,0.886345,-0.716713,-0.748345,0.743151,0.906917,0.136661,-0.716889,0.884851,-0.1331,0.136661,-0.739111,1.04144,-0.110501
0,0,37,-0.207532,-0.126031,0.948333,-0.826506,-0.256128,-0.786668,-0.030181,0.307844,0.652014,0.504474,-0.429925,-0.130702,0.533663,-0.68597,0.466317,0.21647,-0.85846,0.0391375,0.447465,0.34416,-0.727573,0.124099,-0.649304,0.109062,-0.349906,-0.48551,-0.469397,0.568404,0.616837,0.717002,0.311136,0.00968958,-0.576605,0.717002,0.311136,-0.84731,-0.576605
0,0,38,0.845081,0.323713,0.537242,-0.894849,0.632352,-0.900988,0.916203,-0.414222,0.577804,-0.989039,-0.638956,-0.507497,0.0453136,0.509502,0.582605,-0.387865,0.660979,-0.719116,-0.116798,-0.661506,0.646577,-0.41491,0.843894,-0.00530084,-0.326981,-0.669507,0.0431106,0.115704,0.262477,0.953015,-0.358985,0.913695,0.614892,0.19999,-0.557446,0.185934,0.337136
0,0,39,-0.511613,-0.203628,0.0799902,-0.970352,-0.835828,0.384123,0.631875,0.688394,0.408028,0.57355,-0.126437,0.292106,-0.849123,-0.128056,0.831532,0.945285,0.316248,-0.414999,0.899145,-0.372325,0.407936,0.397205,-0.602496,-0.624138,-0.313498,-0.307432,-0.0576313,-0.781578,0.871024,-0.380929,-0.254711,-0.329944,0.661123,-0.380929,-0.375323,-0.546865,0.406307
0,0,40,-0.471625,0.1782,-0.74813,-0.576935,-0.541008,0.927823,-0.925152,-0.315545,0.440003,0.739234,-0.355055,-0.536018,-0.0473517,0.692839,-0.736445,-0.924043,-0.875425,0.0421743,-0.271218,0.0848281,0.515945,0.438198,-0.985419,-0.365605,-0.0437055,0.497621,-0.303654,0.952556,0.150287,0.443826,-0.604698,0.00702942,-0.466131,0.443826,-0.322957,0.00702942,-0.466131
0,0,41,-0.220379,-0.623517,0.0905384,-0.27185,0.440094,-0.640357,0.16431,0.990151,0.998901,0.768688,-0.430133,-0.521248,0.663714,0.698101,-0.519062,0.283407,0.897431,-0.684304,0.16598,-0.0305623,0.920605,-0.56398,0.136047,-0.491837,-0.408093,0.407129,0.0691369,0.156109,0.2593,-0.886071,-0.0691226,0.16277,0.77822,-1.16552,-0.0691226,0.097908,0.059108
0,0,42,-0.449116,0.386188,0.266964,0.613566,-0.438084,-0.53067,-0.707509,-0.348045,0.0491971,0.27504,0.742115,0.0692996,-0.89288,-0.856958,-0.769458,0.571103,-0.0219558,0.00639234,0.872861,-0.64194,0.568407,0.474778,0.858733,0.597123,0.868624,0.838883,0.599645,0.122696,0.0209576,-0.524438,-0.317065,-0.483276,0.419659,-0.0863567,0.121314,-0.483276,0.449109
0,0,43,-0.501432,-0.926298,-0.740717,-0.535554,0.765682,0.444265,0.422179,0.50555,0.418439,-0.0811282,-0.610168,0.260654,0.938987,-0.108399,0.363479,0.291509,-0.369882,-0.801542,0.812511,0.117189,0.484406,0.216508,-0.702413,0.181497,-0.991296,0.0357587,-0.591054,0.309904,-0.385952,-0.643934,-0.956473,0.942362,0.0388941,-0.602156,-0.876171,0.938807,0.104008
0,0,44,0.09582,0.315093,-0.934819,-0.955067,-0.707213,-0.787282,-0.130383,-0.110138,-0.990226,0.62338,0.399256,0.110187,0.55658,-0.263438,-0.841066,-0.838288,0.948872,0.548559,0.0660441,-0.939527,-0.655845,-0.339775,-0.527286,0.707978,-0.771568,-0.104323,-0.522617,0.289807,-0.78406,0.0318739,0.98935,-0.370094,-0.648975,0.0318739,0.98935,-0.370094,-0.641436
0,0,45,-0.70685,0.25865,0.0329104,0.421679,0.72861,0.75384,-0.157808,-0.912274,-0.152963,0.500857,0.625892,-0.871659,-0.860041,0.0163047,0.0199856,0.479546,0.373881,-0.981496,0.34771,0.84336,0.670418,-0.377314,0.5911,-0.560967,-0.604764,-0.046403,-0.900746,0.513016,0.106497,0.840986,-0.546961,0.505402,-0.691337,0.786992,-0.0577891,0.816001,-0.691337
0,0,46,0.839902,0.0933779,-0.5628,-0.58991,-0.969228,-0.470626,-0.718069,-0.312193,0.323669,0.0992758,-0.5108,0.350432,0.489999,0.981043,0.372562,0.0408318,0.666735,-0.602182,-0.801847,-0.590998,-0.106549,-0.778435,0.875767,0.622796,0.196496,0.652053,0.020834,0.739276,-0.870595,-0.193292,0.194978,0.692158,-0.571205,-0.193292,0.194978,0.692158,-0.551378
0,0,47,0.690555,-0.447122,-0.351425,0.739145,0.284028,-0.517307,-0.880972,0.839557,0.083163,0.935765,-0.059211,0.844566,0.715623,0.710824,-0.359134,0.177393,0.16227,-0.0871492,0.171184,0.605061,0.889514,-0.608902,-0.93377,-0.428372,0.18571,-0.0524597,-0.61993,0.135384,-0.990975,0.923046,-0.131197,0.00507585,-0.828153,0.493513,-0.131197,0.00507585,-0.360853
0,0,48,0.965745,0.187466,-0.287505,0.260823,0.19649,0.584072,0.940079,-0.402531,0.538598,-0.840702,0.242359,-0.512989,-0.435761,0.464745,0.281849,-0.0281918,-0.998117,-0.143968,-0.646885,0.758738,-0.438171,0.8994,0.95364,0.15834,0.147984,0.202839,0.334461,-0.374628,-0.00311031,-0.43517,-0.608835,-0.694136,0.678617,-0.156807,-0.266757,-0.147683,0.678617
0,0,49,-0.939809,-0.892807,-0.292679,-0.998054,0.282833,0.170084,0.0905053,-0.0155887,-0.432828,-0.966007,0.881773,-0.91227,0.563747,0.315384,0.0348674,-0.877599,0.597966,0.860202,0.938628,0.366954,-0.00304305,0.468318,-0.630832,-0.754427,-0.678607,-0.78747,0.994811,0.344426,0.246326,0.0808295,-0.739882,-0.0521737,-0.870449,1.45243,0.146923,0.403453,-0.870449
0,0,50,-0.620384,-0.296393,0.177794,0.186765,-0.396678,-0.540005,0.0498782,0.698047,0.301997,-0.268314,-0.637499,0.438307,0.865768,0.027145,-0.895852,-0.253305,-0.607901,-0.887422,0.79102,0.89109,-0.906731,0.197495,-0.318873,-0.291279,-0.845628,-0.384502,-0.260163,0.660406,0.384432,-0.792125,-0.507119,-0.645517,0.340749,-0.792125,-0.507119,-0.688179,0.0347625
0,0,51,0.535404,0.58088,0.882815,-0.358958,-0.729956,0.881942,0.614533,-0.069996,0.426721,0.10811,0.534777,-0.218845,0.956696,-0.677623,-0.656774,0.693969,-0.310104,-0.151161,-0.911583,-0.789006,0.0240839,-0.702304,0.044858,0.473062,-0.00851528,-0.338728,-0.540459,0.0736171,-0.820654,0.176313,0.102114,-0.111041,0.709225,0.176313,-0.345702,-0.252567,0.709225
0,0,52,-0.638464,-0.316257,0.140099,-0.598635,0.500653,-0.818918,-0.583945,0.376418,0.0237612,0.0385135,-0.0390388,0.179205,0.0113325,0.869606,0.619622,-0.542999,-0.301082,0.198905,0.0932677,0.017977,-0.864537,0.127901,0.899893,0.309787,-0.364781,0.255277,0.694557,-0.299649,0.836035,0.634463,0.956893,-0.99761,0.783783,0.0162566,0.956893,-0.99761,0.285137
0,0,53,0.243258,-0.0789547,0.823635,0.808856,-0.584418,0.984272,0.92614,-0.508414,0.713964,-0.0589404,-0.166696,0.0254235,-0.055843,-0.306446,-0.190865,0.104825,0.199452,0.14368,-0.455342,0.0861027,0.395229,0.658514,-0.555997,0.451577,-0.508379,0.0408867,-0.522304,0.789572,0.610517,0.729989,-0.315163,-0.22798,-0.40819,0.729989,-0.288945,-0.696478,-0.40819
0,0,54,-0.976869,-0.338962,0.67292,-0.440969,0.085797,0.0315545,0.755274,-0.412587,0.589354,0.687214,-0.687345,0.23121,-0.50083,0.793803,-0.427637,-0.807612,0.783295,0.498788,-0.624477,0.343337,-0.54144,-0.827128,-0.445181,-0.286781,-0.356991,0.34696,0.993917,0.667596,-0.909823,-0.71463,-0.680003,0.897077,0.878551,-0.71463,-0.680003,-0.702525,0.878551
0,0,55,-0.191278,-0.933403,-0.0666141,-0.389344,0.562273,0.784062,0.671954,-0.857334,-0.904469,0.0203794,0.409315,-0.60865,-0.956513,0.877393,-0.9004,-0.68678,0.377766,0.641707,0.896521,-0.690446,-0.266656,-0.560043,-0.871837,-0.259445,-0.57773,0.0973232,0.0353617,0.718171,-0.0808048,0.623171,0.676401,-0.355594,-0.693602,0.911421,1.05141,0.126413,-0.693602
0,0,56,-0.155638,0.713741,0.0893849,-0.75203,-0.313787,-0.909895,0.789451,-0.812013,0.982523,0.433558,-0.450889,0.0973695,-0.792281,-0.774981,0.917397,-0.531078,0.534875,-0.642028,0.352946,0.918079,0.656599,0.792869,-0.552523,0.0923769,0.0786185,0.729931,0.191469,-0.962966,0.558944,-0.459904,-0.0694346,-0.344575,0.444196,-0.459904,-0.0694346,-0.801787,0.444196
0,0,57,-0.755186,-0.435132,0.926823,0.0264265,0.613552,-0.121761,-0.82167,0.155237,0.292023,-0.0584033,0.122373,-0.329064,0.723332,0.394414,-0.0794262,0.444539,0.784431,0.421396,0.811278,0.0588589,-0.750002,-0.302322,0.101828,-0.798172,0.774132,-0.492117,0.209246,0.485871,-0.850287,-0.57547,0.870845,-0.971617,-0.212468,-0.521914,0.832429,-0.971617,-0.0867116
0,0,58,-0.16201,0.291412,-0.66775,-0.52184,-0.568507,-0.94202,-0.0232336,0.570141,-0.962872,0.996777,-0.132521,-0.565371,-0.890238,-0.879246,0.1539,0.704201,0.800243,-0.161453,0.28862,-0.780417,0.0700814,-0.873273,-0.891868,-0.773201,-0.575561,-0.276746,-0.667496,0.108277,-0.217217,-0.571526,-0.968987,-0.38242,-0.243459,-0.571526,-0.968987,-0.556403,1.7099
0,0,59,0.337499,-0.110101,-0.586038,-0.86448,-0.258828,-0.684701,0.0347399,0.677189,-0.203427,-0.535015,-0.421367,0.279969,-0.770802,-0.679224,0.277929,0.57514,-0.126942,0.913809,-0.21282,-0.520682,0.0184408,0.615958,0.285227,0.0166897,-0.173968,0.640661,0.355227,-0.898947,0.891297,0.790784,-0.306192,0.901676,0.2257,0.790784,-0.306192,0.549487,0.281249
0,0,60,0.676071,0.689281,-0.367862,-0.945251,-0.715637,0.715101,-0.523962,-0.662885,0.423168,-0.849915,0.68273,0.631809,0.560009,0.0988889,-0.0602313,-0.8322,0.267588,0.723929,0.835837,0.247895,0.0594563,-0.465854,-0.152338,-0.0297296,-0.938957,0.505286,0.221309,0.660815,0.670394,-0.9328,0.238668,-0.188094,-0.501637,-0.928785,-0.352307,-0.188094,-0.501637
0,0,61,0.761367,0.069167,-0.547274,-0.306079,-0.188747,-0.169933,-0.779369,-0.0780356,-0.0706793,0.345463,-0.907268,0.820026,-0.919793,0.920717,-0.0248653,0.99361,-0.394678,0.596363,-0.387653,-0.712493,-0.261444,-0.350532,0.69191,0.911201,0.0582972,-0.380055,-0.487198,-0.977911,0.689801,-0.864429,0.967667,-0.56393,-0.0410202,0.448044,0.967667,-0.513075,-0.0410202
0,0,62,-0.553515,0.0957508,-0.162762,-0.327839,0.190996,0.00884194,0.1002,0.642577,-0.618072,0.9824,0.290861,-0.471885,-0.0357003,0.666421,-0.0389234,0.504656,-0.224949,-0.772148,0.543059,0.338503,0.8253,0.933652,0.830735,-0.248482,-0.984505,0.548414,0.659395,0.519243,-0.461077,-0.876765,0.0188243,0.287376,0.0631653,-0.315958,0.155336,0.38368,1.26129
0,0,63,-0.689352,0.73719,0.739344,0.942594,-0.468475,-0.470001,-0.0554249,0.77228,-0.259446,0.655649,-0.306264,-0.258056,-0.118888,-0.517628,0.0552918,0.367482,-0.478557,-0.0449869,-0.44146,0.944978,0.0408325,0.680056,0.274466,-0.53004,0.788222,0.0684251,0.63378,-0.868359,-0.95476,-0.304951,-0.660664,0.734601,-0.769275,-0.112013,-0.644356,0.734601,0.812156
0,0,64,0.0115971,-0.422958,0.364079,-0.838264,-0.989148,-0.720504,-0.122676,-0.139441,0.216791,0.415534,0.0988889,0.237829,-0.0484589,0.601533,0.594438,-0.857055,-0.744126,0.763939,-0.2278,0.920518,-0.428018,-0.0544971,-0.0527892,0.809239,0.165036,-0.788288,-0.909967,-0.0436668,0.540878,-0.45273,0.435407,0.669587,0.399634,-0.45273,0.435407,0.694661,0.399634
0,0,65,-0.120661,0.231095,-0.522813,0.287739,-0.242905,-0.941585,0.692781,-0.187596,0.438123,-0.638705,0.834579,0.743008,-0.0427228,-0.926047,-0.666704,-0.405698,0.19542,-0.23309,0.100357,0.39712,0.895993,-0.920396,0.250305,0.476058,-0.344441,-0.587107,-0.125673,-0.86458,-0.843975,-0.261647,0.503229,-0.660519,0.169542,-0.261647,0.503229,-0.38195,0.1401
0,0,66,0.951845,-0.137091,0.978202,-0.501184,0.34649,0.329205,-0.541026,0.924461,-0.946612,0.126724,0.480422,0.201104,0.536747,0.432157,-0.856214,0.176791,-0.223859,0.691113,-0.95533,0.123244,0.845745,-0.426087,0.0985018,0.619557,-0.889143,-0.917714,-0.292974,0.990026,-0.915167,-0.994377,-0.845149,-0.163561,0.405676,0.696814,-0.845149,0.767008,0.413051
0,0,67,0.359491,0.314622,0.30579,-0.801023,0.240126,0.583232,-0.335669,0.735754,0.82379,-0.906809,-0.475537,0.354459,-0.349574,-0.00743793,-0.763098,0.207447,0.888976,0.564032,-0.686415,-0.347591,0.223817,-0.640948,-0.0622917,-0.0350134,-0.983145,0.0742788,-0.122347,0.394552,0.410361,-0.701325,-0.888542,-0.407381,-0.345798,-0.850896,-0.999644,-0.407381,-0.304814
0,0,68,0.708957,0.495162,-0.409807,-0.0736475,0.448094,-0.133475,-0.286535,0.594069,-0.095482,-0.190001,0.00278629,0.345257,0.548378,-0.125159,0.954646,0.875408,0.169123,-0.997502,-0.58519,-0.446822,-0.190239,-0.460949,0.574586,-0.470952,0.810853,0.886079,0.157689,0.0145216,-0.167201,-0.985435,0.159255,0.932385,-0.973471,-0.868156,0.210378,0.739506,-0.0833897
0,0,69,-0.955368,0.948083,0.589839,0.594161,-0.031517,-0.135726,-0.564812,-0.190631,0.984431,0.436803,0.370624,0.559232,0.278245,-0.969134,-0.794507,-0.57609,0.918348,-0.993275,-0.296342,0.545558,0.805052,-0.418842,0.831932,0.147762,0.0763121,0.594362,0.468281,0.420784,0.893483,-0.258053,0.0923586,0.953924,-0.0341675,-0.258053,-0.219259,0.75863,-0.827027
0,0,70,-0.577332,0.707278,-0.568971,0.69922,0.355411,0.650561,0.71788,0.784856,-0.15599,0.365783,0.0798816,-0.200912,-0.958723,0.528658,0.642835,-0.985254,-0.714792,0.44886,-0.570844,-0.632947,-0.681837,0.283299,-0.348175,0.677945,-0.450649,-0.641219,-0.867657,-0.264696,-0.388154,-0.355701,0.236726,0.1615,0.65203,0.279001,0.0890862,0.471455,0.758962
0,0,71,-0.293751,0.481904,0.106859,-0.502405,-0.421043,0.0517177,-0.256551,0.898614,0.65024,0.385618,-0.259697,-0.566936,0.831964,-0.614994,-0.641838,-0.413827,-0.101866,0.681775,0.177675,-0.0346051,0.382806,0.0335506,-0.360436,-0.358743,0.288785,0.513762,-0.100242,0.0297205,0.618993,-0.787813,0.924607,0.753774,0.877664,-0.822149,0.959021,0.753774,-0.555172
0,0,72,-0.0392707,0.852608,0.689202,-0.880269,-0.522885,0.00754913,-0.635774,-0.507819,0.464877,0.279778,0.40071,-0.802495,0.0116192,-0.542554,-0.323156,-0.378287,-0.456875,0.152106,-0.240957,-0.90901,0.274362,0.786585,0.300949,-0.499424,0.00571184,-0.156455,0.215677,0.800431,0.989197,-0.904602,-0.451297,-0.83472,0.901169,-0.78304,-0.465834,-0.83472,0.901169
0,0,73,0.555502,-0.580598,-0.676786,0.550041,0.0346291,0.205157,-0.894312,-0.486293,0.684537,0.3804,-0.174231,-0.403104,-0.994443,-0.879238,0.735407,-0.994622,0.0281419,0.464988,0.834315,-0.612936,0.927626,-0.0647439,-0.769922,-0.802279,-0.477279,0.424798,-0.305192,0.432495,0.546268,0.806114,0.253489,-0.793397,0.390114,0.0824486,-0.695543,-0.793397,0.137966
0,0,74,-0.240803,0.662657,-0.183384,-0.0184714,-0.625543,-0.261753,0.997085,0.0858428,-0.0566352,0.502096,-0.596994,-0.408259,0.491733,-0.745585,0.215097,-0.852506,0.829481,0.954166,-0.97172,0.396666,0.707973,-0.249216,0.360506,0.160454,-0.337942,-0.238357,0.651353,0.43868,-0.478484,0.368599,-0.977379,-0.938312,-0.371632,0.122379,-0.977379,0.167892,-0.0442985
0,0,75,-0.936306,0.536114,-0.7649,-0.362824,0.222801,-0.855628,0.567905,-0.828814,-0.2836,-0.914228,-0.718311,-0.691838,-0.406216,0.316008,0.840976,-0.454868,0.276029,-0.224807,0.218237,-0.270022,0.535809,0.519607,0.366695,0.315615,-0.841171,0.7506,-0.25274,0.022925,-0.173236,-0.22218,-0.816587,0.604898,-0.28894,-0.148813,-0.816587,0.952978,-0.28894
0,0,76,0.675018,0.508557,0.353214,0.10371,0.308011,-0.133713,-0.167366,0.783004,-0.557794,-0.782392,0.66401,0.967615,-0.753613,-0.21997,-0.836744,-0.619646,-0.428375,0.596183,0.893676,-0.386078,0.634641,0.820207,-0.836968,-0.297615,-0.32664,-0.257507,0.0286242,0.298677,-0.932028,-0.120033,0.0314529,0.812268,0.473985,0.304408,0.0314529,0.812268,0.644313
0,0,77,0.5013,-0.514807,0.558766,0.930171,0.127619,0.136941,0.995828,0.493034,-0.388902,0.296467,-0.332361,-0.415838,0.159402,-0.517635,-0.822939,-0.706705,0.42526,0.0301047,-0.182525,0.262138,-0.176001,0.0976441,-0.955907,-0.705806,0.166458,-0.41245,0.574277,0.0849726,-0.131212,-0.174364,0.00200493,-0.517705,0.918772,-0.174364,0.00200493,-0.426359,1.0541
0,0,78,0.0367173,-0.916885,-0.227935,-0.102577,0.250466,-0.0083755,-0.445871,0.234922,-0.465682,-0.30367,0.995397,-0.909644,0.378033,-0.0780908,-0.762069,-0.95878,0.13974,0.694702,-0.739139,0.933484,-0.663398,-0.697656,-0.119904,0.159399,0.704881,0.22927,-0.727935,0.0790648,0.381009,-0.417418,-0.674444,-0.861162,0.120465,0.358946,-0.674444,-0.861162,1.06074
0,0,79,-0.717564,-0.452682,-0.239198,-0.0592003,0.950676,-0.143461,-0.339689,-0.152654,0.0635282,0.740344,-0.742875,-0.869264,0.527671,-0.541412,0.990175,-0.299532,0.510758,0.578092,-0.107429,0.231888,0.561662,-0.0403152,0.519928,-0.449004,-0.673951,-0.00289441,0.466588,0.0426049,0.379837,-0.154189,-0.268452,-0.943952,-0.705562,0.0483098,-0.296217,-0.943952,-0.705562
0,0,80,0.644667,-0.0165641,0.564971,0.727811,0.598607,-0.475883,0.979796,0.665303,-0.504587,-0.609498,0.264526,0.373303,-0.376722,-0.577487,0.549639,0.394507,0.472501,-0.0914499,0.98266,0.369746,-0.902353,0.749618,0.205088,0.111812,0.948856,-0.58059,-0.680403,-0.653526,0.883998,0.460303,-0.620863,-0.289054,-0.724643,0.430647,-0.620863,0.455978,0.222247
0,0,81,-0.502367,-0.653693,0.0839604,0.59811,0.116166,-0.327925,0.984211,-0.0895709,0.70939,-0.0307326,-0.176359,0.621993,0.708413,0.888637,0.431514,-0.632472,-0.272369,0.321077,0.776216,0.180687,0.409673,0.91503,0.498134,-0.753631,0.520628,-0.136724,-0.740691,-0.394231,0.931452,-0.339421,0.51238,0.692103,-0.00705307,-0.530337,0.51238,-0.336528,-0.238272
0,0,82,0.422493,0.123571,0.40966,0.00572853,-0.961581,0.793988,-0.864862,0.452162,0.308958,0.390931,0.488384,0.894965,-0.779739,0.436473,-0.745494,-0.625675,-0.444008,0.655211,0.175124,-0.538634,-0.949897,0.285083,-0.295164,0.589332,0.0692184,0.154129,-0.828219,-0.939155,-0.869839,-0.586723,-0.862002,-0.0184951,0.392419,-0.586723,-0.692464,-0.0184951,0.455127
0,0,83,-0.894179,-0.0999639,0.941904,0.0990686,0.422542,0.6132,0.425477,-0.543124,-0.608456,0.343741,-0.202751,-0.555193,0.090005,0.947287,-0.569194,0.924103,0.637227,0.95006,-0.961865,-0.902749,-0.390223,0.308849,-0.493284,0.36506,-0.801578,0.836382,-0.723216,0.093876,0.634792,0.725243,0.870965,-0.292351,-0.897715,0.933583,0.877401,-0.0678887,-0.897715
0,0,84,-0.18991,0.35336,0.428238,0.13703,-0.0764376,-0.48924,0.430047,0.353267,-0.76565,-0.422325,-0.878839,-0.130401,0.707895,0.549605,-0.332323,-0.893399,0.664329,-0.652866,0.092334,-0.67968,-0.203981,0.906047,0.129995,0.187165,0.719886,0.652591,0.335637,0.342482,0.298748,-0.581592,-0.561888,-0.677791,-0.503914,-0.0233139,-0.561888,0.1247,1.37798
0,0,85,0.940166,0.23827,0.880103,-0.864054,0.131041,0.390328,-0.71683,-0.711972,0.526684,-0.93569,-0.173449,-0.683405,-0.0450058,-0.196588,-0.319863,-0.251692,-0.958187,0.81122,-0.0965991,-0.715281,0.794227,0.902244,0.182446,0.974947,0.864514,0.525047,0.0209617,-0.86728,0.410417,0.305513,0.950686,-0.636772,-0.154816,-0.58205,0.568893,-0.636772,-0.154816
0,0,86,-0.65295,-0.0612428,0.565663,0.406775,-0.997145,-0.738279,-0.698207,0.980338,-0.81363,0.723053,0.139206,-0.530034,-0.0787841,0.831617,0.084235,0.571286,-0.340637,0.810445,-0.719811,-0.297239,0.865798,-0.0913228,0.520249,0.865474,-0.627621,0.554772,-0.234303,0.173109,-0.288761,-0.616921,-0.060727,0.0660412,0.20218,-0.616921,-0.060727,0.417003,1.79583
0,0,87,-0.894904,0.511434,0.380692,-0.974709,-0.23994,-0.486216,-0.499994,-0.756872,-0.571929,0.873903,0.891792,0.626373,0.880467,-0.811708,0.896271,-0.391862,0.950427,0.117945,0.251933,-0.950234,0.835073,-0.475204,-0.205747,0.994566,-0.0358301,0.455422,-0.877381,0.299601,-0.0263241,0.376521,0.678984,0.832683,0.468723,0.376521,0.678984,0.832683,0.530628
0,0,88,0.365502,-0.271037,0.344283,-0.855051,0.0560629,-0.772579,0.120912,0.621993,-0.420892,-0.77657,-0.152655,-0.426711,-0.274095,0.923812,-0.747016,-0.844008,0.647132,-0.930374,0.0200525,-0.506751,-0.384563,0.927785,-0.0988893,0.432214,0.810248,-0.929725,-0.7271,-0.548554,0.65352,-0.313688,-0.0154569,-0.929907,0.30197,-0.244676,-0.0154569,-0.860923,0.754532
0,0,89,0.0988863,-0.0594818,-0.801691,0.787023,0.386402,0.0313729,-0.713922,0.553594,-0.69544,0.98782,-0.965765,-0.817693,0.0150046,-0.608374,-0.799812,0.809742,-0.9643,-0.0890665,0.823202,-0.729553,0.374078,0.241891,0.0527544,0.956658,0.166398,-0.0642021,0.937686,-0.740848,-0.758891,-0.49621,0.59013,-0.42618,-0.723651,-0.361923,1.1138,-0.42618,-0.712514
0,0,90,0.844029,-0.907184,0.609582,-0.516302,-0.618852,0.0375623,0.795414,0.905156,0.0461876,0.397428,0.307315,0.612964,-0.579935,-0.158951,0.158622,-0.837948,-0.347876,-0.232192,0.352584,-0.233226,-0.234149,-0.422817,-0.475218,-0.190986,-0.351433,0.58071,-0.473266,-0.272171,-0.760362,0.512317,-0.147368,-0.990649,0.325213,0.512317,-0.163763,-1.08018,0.580507
0,0,91,0.303458,-0.0641743,0.0317885,0.500585,0.0505372,0.318411,0.565891,-0.114987,0.157727,-0.713159,-0.975773,-0.16757,0.834867,-0.919375,-0.539354,-0.181267,0.438181,0.298896,-0.571748,-0.316803,-0.657423,0.0900293,-0.682997,0.707358,0.740988,0.476834,-0.552795,-0.539639,0.501075,0.0208055,-0.15393,-0.352463,-0.95771,0.28023,-0.15393,-0.132154,-0.616708
0,0,92,-0.147466,-0.295758,0.634765,-0.170145,-0.67289,0.425034,0.690072,-0.477464,0.0433173,0.0835246,-0.413498,0.527753,-0.487336,-0.556466,-0.370983,-0.938382,0.550966,-0.956191,0.60328,-0.198402,-0.858856,-0.18232,0.930914,-0.179617,0.650141,-0.233098,-0.42893,-0.34309,0.819239,0.726345,-0.613754,0.0304581,0.896941,0.726345,-0.0375109,0.0920308,0.838673
0,0,93,0.581219,-0.371887,-0.548698,0.915921,-0.222914,-0.0738468,-0.112368,-0.53433,-0.568548,-0.805263,0.112521,0.200009,-0.678009,0.462601,0.6825,-0.698287,0.465809,-0.384287,-0.494164,0.699381,-0.967895,0.296261,0.436315,-0.334927,0.608651,-0.863576,0.302586,-0.135321,-0.591534,-0.478956,0.895661,-0.516885,-0.792656,-0.478956,0.926886,-0.516885,-0.792656
0,0,94,-0.533976,0.83248,-0.0396606,0.447579,0.0916622,-0.1648,0.106699,0.430002,-0.359392,0.854968,-0.793457,-0.532012,-0.805314,-0.884667,0.967798,-0.252505,0.438519,-0.750252,0.417942,0.430442,-0.130277,0.735403,0.828968,0.987939,0.107352,0.575501,0.539543,-0.0194533,-0.570422,-0.0871764,-0.950476,-0.620572,-0.314553,-0.246255,-0.14937,0.670893,0.471796
0,0,95,0.160199,-0.709511,0.764705,0.638149,-0.607258,0.185013,-0.258974,-0.711613,-0.503841,-0.199349,-0.0553572,-0.443437,-0.316456,-0.124656,0.834053,-0.177681,-0.874589,-0.0351317,-0.779349,-0.799853,-0.211063,0.875023,-0.784005,-0.390616,0.793337,-0.333151,-0.502935,0.568472,-0.222752,0.902315,-0.44641,0.32744,0.877431,0.902315,-0.44641,0.32744,0.877431
0,0,96,-0.243773,-0.921592,-0.388629,-0.676118,0.185114,-0.852081,0.804291,0.0520706,0.799617,-0.378626,0.76405,-0.400319,0.0622427,0.574617,0.0862044,0.595996,-0.496954,-0.357963,0.865572,0.797944,0.220004,-0.936111,0.294818,0.561369,-0.137556,-0.126203,-0.816802,-0.441906,0.0567965,0.425114,0.949543,0.968465,-0.336913,0.00141627,0.949543,-0.818192,-0.437298
0,0,97,-0.395431,0.658608,0.566939,-0.517752,-0.0579953,0.748501,-0.811839,0.959898,0.365137,0.207168,-0.834856,-0.409622,0.74771,0.859485,-0.382938,-0.296058,-0.615332,0.718821,-0.816442,0.432078,0.0952716,0.513443,0.0901144,-0.69097,-0.776764,-0.385174,0.306369,0.510367,-0.496895,0.273617,-0.176725,-0.102529,-0.676962,-0.0563231,0.1659,-0.102529,-0.429585
0,0,98,-0.00682832,0.155237,0.415526,0.529415,0.864282,-0.647373,0.395045,0.144998,-0.92932,0.0432585,0.323034,-0.677957,0.161334,0.292966,0.74073,-0.382511,0.993109,0.439116,-0.631439,-0.47985,-0.649909,-0.0821078,-0.370083,-0.0815107,0.0383933,0.418183,-0.525796,0.490121,-0.483334,-0.60995,-0.306941,0.401173,0.736156,0.557654,-0.306941,1.0426,0.736156
0,0,99,-0.380137,0.0952463,-0.451036,0.771924,0.87422,0.0548082,0.94798,0.392284,0.056533,0.497885,-0.856772,0.759901,0.234716,-0.509096,0.542926,0.101323,0.525846,0.792618,0.289689,0.918442,-0.185268,-0.951519,-0.815099,0.494642,-0.95327,0.00316064,0.225804,-0.25658,0.936764,0.0764366,-0.563274,-0.2041,0.607368,0.150386,-0.488923,-0.201184,0.500309
0,0,100,0.350273,0.713319,-0.813207,-0.0328005,-0.739691,-0.977034,-0.252701,0.380325,0.255118,0.0791685,0.478575,0.239205,0.332302,-0.306713,-0.459057,-0.552856,-0.293591,0.792653,0.768037,0.439394,-0.247755,-0.890476,-0.0725225,-0.423525,0.296979,-0.233851,-0.909415,-0.27115,-0.232343,-0.293678,-0.115801,0.515347,-0.943269,-0.293678,-0.115801,0.515347,-0.808878
0,0,101,-0.950937,0.961866,-0.0652437,0.328822,0.883323,-0.967463,-0.527668,0.892458,-0.259941,0.38355,0.935743,-0.752195,-0.865077,0.359177,0.526773,-0.221582,-0.44675,-0.540201,0.977462,0.900983,-0.252917,-0.0610038,-0.509452,-0.215628,0.157916,-0.23451,0.680969,0.956213,0.264933,0.658396,0.161301,-0.714553,0.406959,0.562934,0.371488,-0.450545,0.279725
0,0,102,0.361029,-0.0554846,0.362813,0.956022,-0.980709,-0.365214,0.480343,0.36761,0.0194193,-0.844336,0.0370778,0.728868,-0.577554,0.149502,-0.898333,-0.370562,0.523801,0.535854,0.401789,-0.0063268,0.0438158,0.839122,0.593236,0.218346,-0.216267,-0.294149,0.807858,-0.166832,-0.239394,-0.977567,-0.927203,-0.727316,0.14024,-0.977567,0.146733,0.25227,0.214033
0,0,103,0.897908,0.653131,0.210647,0.607254,0.0285467,-0.344907,0.0353348,0.67515,-0.0346739,-0.280093,0.720404,0.3384,0.0494542,-0.291213,0.802945,0.600578,0.510693,-0.317742,-0.0102196,0.532218,-0.025119,-0.775338,-0.797838,0.780368,-0.977935,0.959154,0.125613,0.0909652,-0.58696,0.348666,0.231062,-0.271226,0.429064,0.106285,-0.124452,0.108505,0.0645271
0,0,104,0.99787,-0.203848,-0.489822,-0.131538,0.101088,0.460779,0.990591,0.870404,0.998267,-0.738665,0.0204559,-0.591271,0.617623,-0.45642,0.0965673,-0.894848,0.871093,-0.065713,0.969713,-0.368771,-0.459301,-0.90299,0.623804,-0.394571,-0.918266,0.773568,0.222869,0.811606,0.651416,0.0641755,0.232968,0.93705,0.726167,0.0175441,-0.479543,0.430099,-0.53845
0,0,105,0.687113,0.181913,-0.240189,-0.745809,0.526736,-0.827672,0.575753,-0.351679,-0.856091,-0.353228,0.936542,-0.78832,-0.0419364,-0.282924,-0.111861,-0.411755,-0.0375416,0.458008,-0.626511,0.307849,-0.367722,0.987688,0.153645,-0.295448,-0.939381,-0.996465,0.378274,-0.856768,0.24403,0.566364,0.375399,-0.159001,0.458361,1.09879,0.375399,0.187467,0.458361
0,0,106,-0.0648574,-0.994953,-0.547347,-0.700141,-0.377226,-0.675291,0.441538,0.16051,0.921178,-0.401944,-0.750178,0.910472,0.0856358,-0.245374,0.430346,0.594041,0.810248,-0.926194,-0.892212,-0.186977,0.923279,-0.61259,0.325148,-0.648502,-0.880343,0.567692,-0.0287742,-0.226156,-0.808355,0.596236,0.0360307,-0.117644,-0.437445,0.596236,0.0360307,-1.01297,-0.80887
0,0,107,0.748675,0.157052,-0.766973,-0.371232,-0.693479,0.412715,0.778332,-0.827787,-0.387874,-0.865023,-0.707523,0.86667,0.435375,0.896046,-0.447517,0.0383766,0.404074,-0.332064,0.396136,0.264094,0.309479,-0.423378,0.0631054,0.565529,0.215723,-0.919993,-0.411585,-0.616443,0.477859,0.564426,-0.291825,-0.419581,-0.142805,0.634847,-0.196118,0.446895,-0.142805
0,0,108,-0.161155,0.176868,0.228073,-0.319833,-0.229655,-0.251314,0.896493,-0.925314,-0.372059,0.791918,-0.0406253,0.462842,-0.29914,0.386666,-0.872507,-0.49058,0.162596,-0.817185,-0.433086,-0.27223,0.0736891,0.104292,-0.687561,-0.00643812,-0.351036,-0.3153,-0.625872,-0.287261,-0.298413,0.876444,0.587084,0.228109,-0.415445,0.876444,0.587084,0.506089,-0.415445
0,0,109,-0.612201,-0.237508,-0.0428854,0.464094,0.540889,0.435617,-0.957047,0.428402,0.383796,-0.0449078,-0.52568,0.917937,0.254657,0.760128,-0.910151,-0.334954,0.490726,-0.169974,0.0052954,-0.370512,0.425728,-0.483139,-0.102131,-0.14744,-0.801677,-0.854018,-0.289942,-0.454475,0.333842,0.64677,0.263345,0.660062,0.211293,0.132237,-0.271892,0.660062,-0.399156
0,0,110,-0.32645,-0.191482,-0.0880321,0.366293,-0.453432,0.219004,0.755557,0.987206,-0.727837,0.618859,0.438441,0.421082,-0.4784,0.0809233,-0.240863,-0.350188,-0.0470744,-0.282302,-0.884534,0.612373,0.568557,0.698121,-0.707618,-0.0641574,0.330324,0.161246,0.217513,0.239615,0.678911,-0.516968,0.868681,-0.486634,-0.921082,-0.516968,1.43088,0.411414,0.190591
0,0,111,0.490601,-0.678843,0.598578,0.240873,0.85543,0.802164,0.686229,-0.0789505,-0.141947,0.551381,-0.987176,-0.393967,-0.83286,-0.89727,0.52449,-0.149676,-0.246651,0.992383,0.567677,0.466946,0.834689,-0.125944,-0.55457,-0.299707,0.61632,-0.320235,-0.281587,-0.351868,0.977698,0.949524,0.253623,0.432747,-0.531592,1.03707,0.206562,0.429139,-0.334034
0,0,112,0.0716711,-0.446046,-0.476867,-0.234819,-0.623332,0.552194,-0.45179,0.609338,-0.225957,0.105332,-0.30828,-0.0460698,0.292901,0.593859,0.328829,0.331329,-0.255943,-0.0843675,-0.392074,0.0714653,-0.480817,-0.0925526,-0.500772,0.0746832,-0.106456,-0.27781,-0.126557,0.717978,0.0900233,-0.937422,0.325564,0.00199024,0.465077,-0.937422,0.291533,0.00199024,0.415572
0,0,113,0.920457,-0.466064,-0.105726,0.358871,0.929395,-0.682453,-0.334762,0.964797,-0.741035,-0.520567,0.138482,0.0226987,-0.967755,0.281169,-0.405529,-0.805841,0.734959,-0.227564,0.702138,0.399031,0.903972,0.290627,-0.425408,0.245531,0.890542,0.035939,0.614725,0.731916,-0.919312,-0.665331,-0.356805,0.870979,-0.0986242,0.152898,-0.356805,0.870979,0.791378
0,0,114,0.353412,0.731506,-0.1356,-0.746855,-0.372552,-0.834441,0.817361,-0.954134,0.589235,0.0398318,0.508479,-0.193295,0.0437379,-0.0880681,-0.344725,-0.605265,0.745761,-0.779811,0.986034,0.948628,0.926658,0.683816,-0.388635,0.131266,-0.691563,0.629741,0.960833,-0.391591,-0.0437904,-0.915247,0.752934,-0.705021,0.234255,-0.915247,0.752878,-0.527922,0.243516
0,0,115,-0.29051,-0.743159,0.648422,-0.660799,0.071823,0.646912,0.48669,-0.540219,0.702776,-0.815407,-0.617825,-0.756877,-0.535797,0.865498,0.365685,-0.871697,0.932255,0.135559,0.112369,-0.597287,-0.50777,0.257271,-0.992202,0.117434,-0.587376,0.264958,-0.568486,-0.737537,-0.106877,-0.277845,0.745803,-0.73794,0.167384,-0.615008,0.0699735,-0.710006,0.167384
0,0,116,0.0454588,-0.888649,0.199823,0.83955,0.337886,-0.678472,0.125441,0.631232,-0.97646,-0.150852,0.20136,-0.253882,0.212406,0.165777,0.815538,-0.844804,0.682444,0.547244,-0.608731,0.802914,0.465322,-0.380744,-0.698952,0.396903,-0.0701811,-0.958454,0.795206,0.236433,0.973478,0.73883,0.243106,0.125444,0.181469,0.73883,0.207628,0.42783,0.912693
0,0,117,0.9492,-0.143979,0.668502,-0.24644,-0.459826,-0.231608,-0.359256,0.109638,0.80799,0.598585,0.721872,0.946482,-0.275824,0.829177,-0.881477,0.454075,0.0653436,-0.888809,-0.46616,0.301969,0.996527,0.484043,-0.782429,0.518082,0.581326,-0.30473,-0.43154,-0.0350625,-0.379533,-0.174149,0.266764,-0.620848,0.829218,-0.12366,0.266764,-0.570952,-0.272541
0,0,118,0.392333,0.929439,-0.76995,0.0335324,0.454558,0.671114,0.555747,-0.0421101,-0.333701,0.238024,0.0411728,-0.126675,0.119001,-0.556141,0.0425959,0.821137,-0.506397,0.386247,-0.68526,-0.10416,0.578062,0.111126,0.383715,0.838819,-0.557788,0.530953,0.810879,0.175138,-0.253647,-0.661385,-0.240745,0.310229,0.168642,-0.363526,-0.214509,0.776479,0.306531
0,0,119,0.573211,0.0723971,-0.337549,0.388845,-0.810349,-0.870627,0.165504,0.271822,-0.993187,0.751002,-0.276024,-0.0720794,-0.643452,-0.341445,0.754893,0.099515,0.337638,0.948398,-0.262178,-0.56778,-0.311415,-0.63483,-0.581936,0.461201,-0.647762,0.643073,0.663122,-0.86581,0.422021,0.638589,0.398687,-0.703853,-0.0618095,0.64805,0.398687,-0.47458,1.99271
0,0,120,0.828562,-0.328959,-0.203206,-0.414223,0.72024,0.75926,0.667001,0.0537501,0.851932,0.367081,0.591787,0.0645098,-0.803697,0.934327,0.273636,-0.499498,0.298216,-0.241435,0.855529,-0.120999,-0.174687,-0.3704,0.446416,-0.344858,-0.157896,-0.0611886,0.605588,0.805844,-0.737926,0.106851,-0.260082,-0.399073,0.235581,-0.0985649,-0.449482,-0.482987,0.201219
0,0,121,-0.0485374,0.672043,-0.222011,-0.672861,-0.604285,0.925656,-0.932207,-0.400621,-0.452057,-0.536534,-0.637687,0.650459,0.47615,-0.213652,-0.442043,-0.0438774,0.695463,-0.782017,-0.204013,-0.108082,0.554096,-0.943899,-0.324083,0.719843,-0.1359,0.965617,0.760017,-0.788695,0.13344,-0.0346221,0.570803,-0.461524,0.368702,-0.0346221,0.893482,-0.461524,0.215417
0,0,122,0.821125,0.232293,0.510049,-0.871952,-0.376893,0.598828,0.590971,0.363238,0.0277656,-0.160294,-0.184592,-0.202208,-0.463326,-0.0175777,0.427631,0.467976,0.178317,0.0379594,-0.844439,-0.363042,0.757863,0.89237,0.861228,0.985677,0.668368,-0.101727,-0.415298,-0.308043,-0.900656,-0.344475,-0.302514,-0.732591,0.935751,-2115.91,-9795.41,-9795.84,-10002.7
0,0,123,-0.137024,0.100421,0.534764,0.107787,0.740086,0.621522,-0.240324,-0.585402,0.504931,-0.737906,0.123833,0.32296,-0.781464,-0.539957,0.00772444,0.678562,0.297227,0.393517,0.785044,-0.319354,-0.961187,0.483858,-0.655141,-0.92286,0.0269904,0.0560601,-0.815037,0.54073,0.887459,-0.268369,-0.431227,0.704762,0.743865,-0.466005,-0.122117,0.511525,0.548951
0,0,124,-0.355597,-0.619069,-0.431361,-0.267582,0.383169,-0.552158,0.951487,0.288128,-0.575745,0.416175,0.254372,-0.890077,0.701877,-0.614937,-0.850073,0.993629,-0.615522,0.891364,0.408733,-0.338027,-0.227595,0.735892,-0.256765,-0.25103,0.841138,-0.781917,-0.217028,-0.931376,-0.457258,-0.841928,0.156699,0.405046,-0.623057,-0.520964,0.156699,1.22795,-0.401797
0,0,125,-0.219931,0.930951,0.0217523,0.989294,-0.191035,-0.694132,-0.0208227,0.365879,0.589835,0.371512,0.554037,0.613879,-0.167606,-0.223976,0.117718,0.177907,0.608984,0.923011,-0.971729,0.91994,-0.462818,0.310489,-0.868856,0.473291,-0.763831,0.569339,-0.513466,0.150399,-0.777189,-0.704577,0.844133,-0.405991,0.353479,-0.387427,0.844133,-0.0495604,0.353479
0,0,126,0.124431,0.231237,-0.576386,0.0501006,-0.663476,0.49085,0.338714,0.980232,-0.296293,-0.32291,-0.330761,-0.115161,-0.00711481,-0.573977,-0.496979,-0.79793,0.774039,-0.38499,0.567367,0.985099,0.889049,-0.687658,-0.986372,0.961946,0.708368,0.798347,0.615015,-0.207964,0.523112,0.257629,0.755816,-0.379951,-0.567955,0.257629,0.98183,-0.221136,-0.170893
0,0,127,0.0243481,-0.827062,-0.37691,0.581999,0.808323,-0.867245,0.415479,-0.086039,-0.918828,0.494842,-0.136591,0.948747,-0.46665,0.380206,-0.064279,-0.0386615,-0.911923,-0.364735,-0.911386,-0.801001,0.326252,-0.498533,-0.26103,-0.440377,0.0942676,0.393171,0.318238,0.991679,0.164543,0.634861,0.787862,0.0659388,0.637502,0.806024,0.787862,0.130572,0.5781
0,0,128,0.430823,-0.997854,0.547744,0.65353,0.627706,0.018073,0.587895,0.346212,0.947982,0.46588,0.0494655,0.747466,-0.846632,0.53768,0.814429,-0.877262,-0.768184,0.245904,-0.377817,-0.873885,-0.791081,0.885127,-0.0381343,-0.436984,0.268664,0.489041,-0.766007,-0.245333,0.340306,-0.121238,0.602833,-0.181774,-0.306789,-0.621346,0.167883,-0.225867,-0.348472
0,0,129,-0.0350972,-0.862395,0.854088,-0.331928,0.528908,0.895642,-0.634549,0.37393,0.996179,-0.999463,0.638156,0.570327,-0.0719368,-0.699107,-0.817044,-0.0377224,-0.251656,-0.0784295,0.212964,-0.638781,0.256222,-0.943096,0.52536,-0.315953,-0.924379,-0.803351,0.369665,-0.481231,-0.907927,0.729904,-0.0675548,0.425099,-0.754725,0.729904,-0.76355,0.425099,-0.754725
0,0,130,0.265054,-0.252819,0.380582,-0.931974,0.505953,0.994051,-0.597543,0.717727,-0.911615,0.84748,-0.503266,-0.219598,-0.539186,-0.415993,0.438499,-0.634681,0.544876,-0.838557,-0.155971,-0.514402,-0.656453,-0.901897,0.134136,-0.361993,0.792353,-0.305952,-0.0249635,-0.617923,-0.765227,0.324804,-0.552245,-0.575841,0.119781,0.433271,0.147326,-0.575841,0.819352
0,0,131,0.161469,-0.890853,0.851351,-0.0877808,-0.534166,-0.371299,0.818158,-0.372762,-0.793356,-0.787852,0.294083,-0.0968958,-0.257328,0.472679,0.249165,-0.783107,-0.576826,-0.0645119,0.412239,-0.0029955,-0.599563,0.191276,-0.339276,0.234806,0.886268,0.812371,-0.486123,-0.220782,0.671471,-0.701893,0.907879,-0.201584,0.292045,-0.568415,0.907879,1.39253,0.660895
0,0,132,-0.181867,-0.170897,0.125488,0.0330204,0.053713,0.898678,-0.246462,0.836331,0.123696,-0.366182,-0.742018,-0.599082,-0.732662,0.997147,0.782202,-0.0829707,-0.0644838,-0.463224,0.367969,0.253452,-0.28919,-0.87871,0.660487,-0.728891,-0.383333,0.926499,-0.150369,-0.543834,0.569402,-0.72954,-0.835012,-0.0251886,-0.954328,-0.716975,0.0670947,-0.0251886,-0.155973
0,0,133,0.840834,-0.728881,-0.100845,-0.134547,-0.797684,-0.301179,0.261276,-0.828472,-0.00204037,0.033963,-0.18566,0.964905,-0.998695,0.691529,-0.857919,0.88559,0.482492,-0.773842,0.343996,-0.800542,-0.475325,0.800018,-0.0272508,0.012599,-0.140151,-0.616829,0.652072,0.466736,-0.327532,-0.0596636,-0.0516042,-0.688528,-0.01637,-0.140677,-0.0516042,0.0750989,-0.01637
0,0,134,-0.706771,-0.338511,-0.467238,0.298338,0.326041,0.0608264,0.751907,-0.0569152,-0.981026,0.399717,0.114583,0.233836,0.727108,-0.411234,-0.556998,0.556203,0.411192,-0.46443,0.148971,-0.350958,-0.270671,-0.958246,-0.689508,-0.886906,-0.913935,-0.868695,0.309177,0.672963,-0.970259,-0.606072,0.505611,-0.891783,-0.97582,-0.170857,0.811757,1.11919,-0.97582
0,0,135,0.158697,-0.896572,-0.582773,-0.848561,-0.434242,0.789272,0.749013,-0.599482,0.981567,0.419842,0.250512,-0.953307,0.647563,0.432406,-0.009371,0.570285,-0.106771,0.727099,0.828081,-0.139374,-0.263746,-0.836715,0.934921,0.230673,0.138835,-0.801508,0.371536,0.461954,-0.265028,0.317105,-0.126612,0.896486,0.0144182,0.317105,-1.07102,0.0472444,0.0144182
0,0,136,-0.688993,-0.311469,-0.10931,0.421436,0.321768,0.590573,-0.841031,0.560779,-0.714006,-0.689399,0.32432,-0.584608,-0.199389,0.786116,-0.0504925,0.68777,0.844736,-0.944131,0.431824,0.760647,-0.0397805,0.0126261,0.687757,0.667181,-0.975713,-0.192705,-0.180227,0.399971,0.952972,0.937335,0.50839,0.620101,-0.510926,1.08329,0.57822,0.620101,0.140407
0,0,137,-0.65434,0.893323,-0.99921,0.59325,-0.845355,-0.107079,-0.576231,0.552087,-0.648734,0.507129,0.514279,0.99187,-0.729248,0.568235,-0.142193,-0.407582,-0.0815202,0.508225,-0.874182,-0.659828,-0.39949,-0.969502,-0.956498,0.0413284,-0.0190775,-0.047486,0.828922,0.704686,0.78286,0.916174,-0.615985,-0.511809,0.559247,0.916174,-1.13411,-0.511809,0.987275
0,0,138,0.250239,0.305384,-0.877035,0.670548,0.767055,-0.55704,0.269325,-0.456082,0.458063,0.132304,0.391008,-0.733502,-0.00928452,0.539532,-0.241536,-0.581148,0.1611,0.650373,0.611818,-0.259179,0.152724,-0.203814,-0.775804,0.688826,0.381613,0.329474,0.692108,-0.30984,-0.758794,0.594668,0.00182261,0.291405,-0.364202,-0.446356,0.0550549,0.291405,-0.364202
0,0,139,-0.738958,0.943743,0.586983,0.711969,-0.0276823,0.288797,-0.91632,-0.68401,-0.0704121,-0.00165858,0.390774,-0.257381,0.364082,0.0683442,-0.974263,-0.825153,0.610182,0.406629,-0.0702793,0.321179,0.687569,-0.70767,0.66249,-0.218956,0.79864,0.265063,0.775923,0.128414,-0.993013,-0.0595872,0.301772,-0.779595,-0.0528538,0.0766713,0.131411,-0.779595,-0.0528538
0,0,140,-0.509874,-0.161635,0.027979,0.992054,-0.67911,0.048379,-0.070147,-0.723678,0.682574,0.297702,0.555232,-0.816122,0.128386,0.576639,0.43785,-0.656178,0.145809,0.916778,0.529654,-0.414285,0.184648,0.739284,-0.963107,-0.897379,-0.943407,0.314495,0.172937,-0.0697511,0.825077,0.350731,0.176431,-0.996269,-0.988386,0.218889,-0.210393,-0.996269,-1.15008
0,0,141,-0.769945,-0.899446,-0.541236,0.999643,0.935812,-0.0743471,0.419233,0.878726,0.471646,0.0119471,0.499977,-0.968829,0.863504,-0.498977,0.0771917,0.175827,0.400262,-0.448785,-0.334131,-0.961757,0.134002,-0.790578,-0.836114,0.434213,0.833797,0.318554,0.534152,0.365227,-0.0632942,-0.788976,0.322667,-0.0283419,-0.832075,-0.693033,0.353315,0.0417965,-0.747805
0,0,142,0.580041,-0.26467,-0.747394,-0.641884,0.475761,0.643044,0.457186,-0.185322,-0.275607,0.45349,-0.0366043,0.27605,0.27816,0.941083,0.0390673,-0.49882,0.649203,0.677155,-0.223077,0.00131799,-0.711978,-0.234026,0.433855,-0.697707,0.373446,-0.791868,0.365595,0.603792,-0.579651,-0.889059,0.316581,0.837784,0.615239,-0.331032,0.500081,0.685436,0.887678
0,0,143,0.935563,0.122649,-0.346425,0.662657,-0.512815,0.148807,-0.736752,-0.211662,-0.0867057,-0.0760792,0.0969369,0.531314,-0.663061,-0.0309703,-0.817907,-0.846748,-0.530294,0.891588,-0.555653,-0.631351,-0.690459,0.475493,-0.366479,-0.484524,-0.178173,0.979131,-0.654123,0.862227,-0.624756,-0.573393,-0.538499,0.331603,-0.927924,0.10186,-0.538499,0.331603,-0.927924
0,0,144,0.459965,-0.163469,-0.954446,-0.477866,-0.353655,0.107545,0.0774824,0.660408,-0.486859,0.570913,-0.83939,-0.993213,-0.488986,0.969512,0.00058916,-0.34913,-0.92359,-0.067345,0.485081,0.494895,0.11877,-0.64307,0.912778,-0.359812,-0.541197,-0.85719,-0.486192,-0.131735,0.00264126,0.777966,0.696356,-0.646211,0.719546,1.11302,0.811862,-0.764404,0.848259
0,0,145,0.081325,-0.376165,0.419599,-0.0384968,-0.591106,-0.243084,0.00441053,0.06859,0.0740585,0.300023,0.470225,0.956466,-0.216672,0.570095,0.129748,-0.361686,0.220569,0.843705,0.865816,0.228029,0.0158463,0.768848,0.26423,0.79411,-0.569101,0.868741,-0.943237,0.989702,0.765781,0.574644,0.343396,-0.774103,0.693412,0.620699,0.338492,-0.0529101,0.643298
0,0,146,0.354512,0.455565,0.19052,-0.225711,0.0364204,-0.0948253,-0.626686,-0.971602,-0.24628,0.55771,-0.15721,0.681506,0.365682,0.182524,0.108068,-0.290061,0.713273,0.122709,-0.78462,0.145744,0.0172198,-0.478567,0.346527,-0.951836,0.947805,-0.667001,-0.0551662,-0.789035,-0.402413,-0.261433,0.422099,-0.396063,0.994401,0.154982,0.422099,-0.396063,1.02996
0,0,147,-0.752531,0.631782,0.193394,0.859484,-0.262608,0.669,-0.0546217,0.739014,-0.900765,0.898293,0.0338222,0.632553,0.993139,-0.643574,0.795994,-0.0269341,0.0446439,0.499721,0.118104,-0.0465251,0.891932,0.703363,-0.871423,0.817959,-0.410561,0.393495,-0.481122,0.458935,-0.960511,0.829149,-0.841835,0.751755,-0.445069,0.885076,-0.0921103,0.623032,0.909029
0,0,148,0.694375,0.500369,-0.736208,-0.51806,-0.451539,0.433302,-0.346903,0.188945,-0.789287,-0.658982,-0.196199,-0.121733,-0.341632,0.578915,-0.217821,-0.20702,0.444964,0.758744,-0.208739,0.876045,0.569693,0.862849,0.0818244,-0.282566,0.000398149,0.601311,0.526753,0.929538,-0.206211,0.502272,0.120308,0.311008,0.680507,-0.230958,0.802889,0.287987,0.884448
0,0,149,0.476076,-0.579244,0.515284,-0.840037,0.86769,-0.759989,0.382135,-0.018611,-0.0913374,-0.681816,-0.882269,0.274656,-0.732871,0.606854,-0.862384,-0.395662,0.0606595,0.469459,0.287534,-0.897428,0.921787,-0.473764,-0.500866,-0.184658,0.648088,-0.581058,-0.902431,-0.593241,-0.85881,0.0254137,0.705226,0.280783,0.178337,0.0146807,0.705226,0.397441,0.255469
0,0,150,0.122661,-0.209982,-0.112336,-0.0149996,0.0867668,0.31497,-0.918298,-0.650668,0.407038,-0.724011,0.657208,-0.142636,0.317191,-0.568933,-0.838966,-0.56374,-0.139388,-0.215437,0.780069,0.812805,-0.0184389,-0.538081,0.594563,0.768705,-0.116404,0.257437,-0.530223,0.0593753,0.00872351,0.768072,-0.653423,-0.991365,0.975113,0.786308,-0.62038,-0.991365,0.975113
0,0,151,-0.628451,0.980667,0.0909966,-0.534838,-0.657709,0.953115,0.952809,0.455833,-0.820818,0.122023,0.49372,-0.989479,0.195486,-0.509844,0.804083,-0.411858,0.886391,-0.474366,-0.349361,-0.871474,0.453081,-0.651294,0.179164,-0.828792,-0.677368,-0.287724,0.294295,0.0121502,0.736918,0.205383,0.752418,-0.262042,0.594764,0.205383,0.789184,-0.235971,0.945159
0,0,152,0.140193,-0.348147,-0.182607,-0.131157,0.640992,0.581166,-0.487966,0.179191,-0.60647,-0.88788,-0.345757,0.106135,-0.714652,-0.833303,-0.197624,-0.511248,-0.746423,0.983547,-0.723185,0.984844,0.106191,0.888237,-0.792902,-0.66229,-0.710523,0.7018,-0.915801,0.414314,-0.373113,0.0064258,0.772488,0.81784,-0.759587,0.811269,1.31479,0.81784,-0.765417
0,0,153,-0.413044,0.81549,0.960502,0.6317,-0.0871266,0.282551,0.0454045,-0.107016,-0.744237,-0.173317,-0.330248,0.161336,0.994558,-0.0876637,-0.637166,0.179078,0.145687,0.357665,-0.731305,-0.160449,-0.73041,-0.945951,-0.697227,0.949801,-0.825682,0.973078,-0.773587,0.200566,0.877247,-0.650168,0.355353,0.169646,-0.843346,-0.676465,0.355353,1.20837,-0.843346
0,0,154,0.535647,0.308382,-0.661291,0.708166,-0.565752,-0.862291,-0.525233,0.255468,-0.0303726,-0.707422,-0.266684,0.458921,0.846268,-0.664789,0.77737,0.949055,-0.209145,0.32001,-0.318486,0.702745,0.197885,-0.0948163,-0.59191,0.526404,-0.622132,0.17851,-0.641762,0.160875,0.309895,0.986169,-0.303704,-0.387741,0.874193,0.986169,-0.303704,-0.0541339,0.676458
0,0,155,0.566965,-0.343752,-0.267917,-0.239734,0.178018,-0.399478,0.101681,-0.54842,0.273638,-0.852372,0.673604,-0.419606,-0.706923,0.977592,-0.325016,-0.470658,0.445221,-0.484479,0.525246,-0.921068,0.701981,0.592825,-0.600173,-0.629761,-0.779819,-0.684668,-0.989993,-0.42577,0.0101541,0.845274,-0.15208,-0.636203,0.202349,-0.229478,-0.15208,-0.642785,0.202349
0,0,156,0.708438,-0.833388,0.759281,0.618878,-0.710023,-0.474188,0.407935,0.79707,-0.823634,0.192981,-0.158949,0.502631,0.803482,-0.698904,-0.532327,-0.420156,0.0150165,0.801918,0.32717,0.424858,-0.368156,-0.0097674,-0.783334,0.0752197,0.476597,-0.678005,0.447473,-0.508199,0.915704,0.606665,0.832608,-0.978171,0.207825,0.606665,0.832608,-0.948424,1.09136
0,0,157,0.249014,-0.501276,-0.31895,0.876416,0.406606,0.810313,-0.580438,0.645863,-0.278618,0.287157,-0.571728,-0.442328,-0.993602,-0.201055,0.91807,-0.19586,-0.119916,0.14972,0.900552,-0.477568,0.765502,0.321651,-0.909665,-0.428341,-0.078539,-0.63931,0.481202,0.619964,0.791721,0.30861,0.0249982,0.427451,-0.265953,0.27437,0.314945,0.42247,0.0701285
0,0,158,0.662941,0.201583,0.899927,-0.506172,0.284359,0.704144,0.409101,0.408685,-0.460916,-0.0420924,0.0795065,0.579476,-0.191617,-0.502545,0.196133,-0.995256,0.629404,-0.101242,-0.527059,-0.800172,0.786175,-0.962318,-0.0537098,0.95482,-0.978518,-0.255574,0.686888,-0.697963,0.365931,0.0737283,0.894496,-0.343845,-0.893929,0.0737283,1.32688,0.103533,-0.995895
0,0,159,0.370741,-0.191855,-0.999008,-0.905409,-0.392051,0.758266,-0.801314,0.386417,-0.150043,0.18592,-0.120412,0.661816,-0.0879026,-0.671123,0.935647,0.958603,-0.001798,0.535433,0.600308,0.0417011,0.114826,0.647035,0.978982,0.977174,-0.0664373,-0.91807,-0.416576,0.799131,0.0931539,0.33894,-0.631415,-0.878015,-0.865862,0.33894,0.360032,-0.878015,-0.488579
0,0,160,0.874531,0.0420039,0.0371164,0.0552116,-0.803769,0.150405,-0.423033,0.278205,-0.299456,0.679111,0.255923,0.88142,0.0469213,-0.0547762,0.420825,-0.934935,0.165442,0.695133,0.0705703,0.357732,-0.474921,-0.295983,0.879072,0.219989,0.13235,0.978342,-0.11214,0.739394,-0.0202933,-0.992823,-0.0645131,0.0681549,0.869114,-0.992823,0.221207,0.0681549,1.10595
0,0,161,0.0227226,0.0397989,-0.376541,0.672666,-0.134134,0.268913,-0.429599,-0.935569,0.167583,-0.203722,0.553872,-0.562439,-0.396588,0.402311,-0.97237,-0.960171,0.815625,-0.444715,-0.630983,0.212867,0.0565742,0.0946731,0.648089,-0.300279,-0.737864,0.561114,-0.40576,-0.555287,0.795357,-0.276345,0.437052,0.86279,0.884482,-0.0742373,0.437052,0.86279,0.884482
0,0,162,0.106333,0.680643,-0.0940918,0.160592,0.824664,0.546699,-0.663903,-0.353047,-0.385969,-0.0162492,-0.820632,-0.77516,-0.921944,0.471897,0.428983,0.336956,0.593298,-0.180529,0.134064,-0.834247,0.70382,-0.602428,-0.479872,-0.863106,0.0397562,-0.124621,-0.143286,0.111256,0.599507,0.456884,-0.33287,0.205825,-0.448713,0.850931,0.124866,0.205825,0.119268
0,0,163,-0.353874,-0.751922,-0.0576796,0.968071,0.760339,-0.135853,-0.262709,-0.797196,-0.445606,0.414461,-0.733458,0.104298,-0.88443,-0.759853,0.890245,0.373061,-0.102441,-0.675502,-0.805004,-0.529729,-0.541257,0.454139,0.768246,0.703888,-0.731437,-0.485843,-0.438067,0.916586,-0.791636,-0.431966,0.276593,0.487892,0.247008,0.543747,0.276593,0.707294,0.247008
0,0,164,-0.545266,-0.139263,0.364698,0.738758,0.123157,0.354945,0.985614,0.387919,-0.580927,-0.0948588,0.996341,-0.103789,0.60451,0.596195,-0.614198,0.391088,0.172143,-0.180399,0.536547,-0.19136,-0.792471,-0.912711,-0.146659,-0.485976,0.34473,0.866131,0.755532,-0.348208,-0.380189,-0.154914,-0.452897,0.736835,0.380843,0.429413,0.195487,0.779104,0.177287
0,0,165,-0.596338,-0.901663,0.564695,-0.553119,-0.0853351,0.406339,0.122138,-0.795668,-0.863933,-0.641799,0.0348607,-0.715655,0.153235,-0.576676,0.49823,-0.340315,-0.461434,0.499691,-0.418399,0.499054,-0.182976,0.444096,0.560241,0.332423,-0.972996,-0.55907,0.152515,0.40346,-0.80334,-0.429924,0.329668,-0.774708,-0.865228,-0.732859,1.43499,-0.479641,-0.865228
0,0,166,0.862623,0.755616,0.580298,0.817153,0.195368,0.618605,0.859895,0.649428,-0.742347,-0.567037,0.940351,0.839744,-0.905768,0.728859,0.875636,-0.486244,0.422794,-0.650906,0.499107,-0.189694,0.35771,0.426752,0.167645,-0.848667,-0.277232,-0.976657,0.719637,-0.418261,0.630604,0.645693,0.380671,-0.178949,0.858217,0.443491,0.719573,-0.178949,1.27655
0,0,167,0.620724,-0.651661,0.0312288,0.413239,-0.194807,0.152068,0.624486,-0.834884,0.781811,-0.426647,-0.259409,0.191423,0.386756,0.00468724,0.387642,-0.86684,-0.661477,-0.917989,0.360707,-0.841412,0.761895,0.381259,0.677428,0.79859,-0.211976,-6.18994e-05,0.136051,0.945816,0.194866,0.510761,-0.188291,-0.000354191,-0.116728,0.510761,-0.698833,-0.243866,-0.116728
0,0,168,0.0164211,0.965252,0.905615,-0.601955,-0.970672,-0.557925,-0.857186,0.0180452,-0.217002,-0.685368,0.19156,0.661019,-0.722736,0.43079,0.938891,0.61435,-0.174748,0.28433,-0.178373,0.7608,0.401703,0.60514,-0.792112,-0.0653651,0.774902,-0.167515,-0.0930009,0.571988,0.365697,-0.1666,0.23536,0.329477,0.746729,-0.1666,0.23536,0.309474,0.557269
0,0,169,0.883923,0.540754,-0.135674,-0.342827,0.301654,-0.240346,0.521692,-0.0957436,-0.0252261,0.947305,0.506648,0.616275,0.870707,0.657668,-0.572436,-0.495867,0.700407,-0.238345,0.734835,-0.92506,-0.772162,-0.214008,0.517961,0.962189,-0.455897,-0.898947,-0.96043,0.397858,0.370648,-0.387841,-0.563639,-0.0900245,0.298933,0.543739,-0.563639,-0.210016,0.436466
0,0,170,-0.347542,-0.883224,0.328741,-0.381483,0.758946,-0.547136,-0.869712,0.111616,0.972311,0.495995,0.916447,-0.782093,0.0718072,-0.578061,-0.312357,-0.880496,-0.481492,-0.715985,0.63436,-0.406429,-0.163429,0.0196278,0.181569,0.583428,0.670751,-0.82031,0.0526585,0.929591,-0.454368,0.93276,0.80733,-0.465709,-0.256121,-0.573625,0.80733,-0.465709,-0.699084
0,0,171,0.0970813,-0.0133552,-0.11639,0.0840325,-0.661743,0.860955,0.956989,-0.513618,0.496167,-0.920558,0.91014,-0.848901,-0.527209,-0.71264,-0.590366,0.0404167,-0.893736,-0.963286,0.913541,0.705677,-0.84306,-0.25078,-0.0602532,-0.155897,-0.683591,0.204815,0.248774,-0.38082,0.90263,-0.306832,-0.176006,-0.234712,-0.614175,-0.306832,-0.0993118,-0.248551,-0.614175
0,0,172,0.864156,0.851085,-0.688272,-0.483009,-0.922352,0.784261,-0.854933,-0.0382207,-0.341529,0.0560789,-0.609715,-0.491145,0.19519,0.761696,0.673897,0.90415,-0.858043,0.488539,0.524114,0.0971036,-0.226826,-0.709756,-0.816862,-0.370854,-0.519373,0.312186,-0.0705823,0.664132,0.280217,-0.0469254,-0.0414911,0.942119,-0.988481,-0.0457066,0.358765,0.958743,-0.988481
0,0,173,-0.338587,0.616644,-0.812596,0.281466,0.979137,0.795792,0.814558,-0.777553,0.226753,-0.665287,-0.977736,0.000853253,-0.549323,0.126321,0.686763,0.0346842,-0.385037,0.843415,0.492722,0.840021,-0.803677,0.241072,-0.868757,-0.992312,0.346835,0.435826,0.737659,-0.705391,-0.713941,-0.0398425,0.333341,0.488818,-0.872095,-0.357034,0.070293,0.222332,-0.872095
0,0,174,-0.0696004,-0.866521,-0.513007,0.449285,0.574546,0.928567,0.969441,0.265963,-0.786853,-0.690299,0.294023,0.132372,0.529399,-0.17161,0.939882,0.300413,-0.679159,0.64912,0.68274,0.462964,0.292439,-0.170221,0.737954,0.564557,-0.281976,0.197217,-0.959357,-0.378187,-0.794408,-0.0892643,-0.818797,0.459506,0.512532,0.374726,-0.175524,1.13093,0.512532
0,0,175,-0.0549601,0.52725,0.058985,-0.947918,0.288348,-0.385802,-0.544775,0.823584,0.859977,0.188845,-0.0967132,0.879494,0.711569,-0.839116,-0.187263,0.844918,-0.0529148,-0.915956,-0.0283759,0.158769,0.52873,0.489837,0.26633,0.654573,-0.310287,0.216369,-0.119158,0.0536709,0.511368,-0.445828,-0.0385409,-0.234634,-0.109739,-0.511481,-0.0385409,-0.256427,-0.819649
0,0,176,-0.617925,-0.155541,0.921264,-0.403279,0.580211,0.155537,0.829433,0.451679,-0.316062,-0.20883,0.563796,-0.187216,0.0916538,-0.705937,0.59529,0.58334,0.660417,-0.708154,-0.633295,-0.835655,-0.91454,0.04516,0.185479,-0.0901073,-0.631016,-0.364154,0.213879,0.194572,0.8533,0.883096,0.323929,0.578749,0.70245,0.555194,0.15129,0.191958,0.70245
0,0,177,-0.671702,0.496218,0.480693,0.886005,0.800391,0.496511,-0.797823,0.554403,0.817755,0.98606,-0.889997,0.51735,-0.224577,0.749167,-0.0588409,-0.295397,-0.946099,0.712527,0.885997,-0.788607,0.146399,-0.215424,0.396047,0.673691,0.931012,0.0969317,0.5794,-0.249895,-0.4027,-0.402842,0.774633,-0.690661,-0.512814,-0.967387,0.413181,-0.690661,-0.0669751
0,0,178,0.693713,0.549126,0.843069,0.674786,-0.0823657,0.0591162,0.832818,0.373664,0.0735842,0.919701,0.728682,-0.995785,-0.445769,-0.0136464,-0.350149,0.92959,0.329378,0.23584,0.678292,0.45729,0.0709802,0.915749,-0.638651,-0.989625,0.0535706,0.0964525,0.0356467,0.871771,-0.677417,-0.911881,-0.893185,0.503579,-0.0952524,-0.781727,-0.894327,0.640712,-0.074991
0,0,179,-0.611449,-0.325096,-0.690385,0.634535,0.633798,0.688889,-0.0937966,0.0857088,-0.0786387,0.0217933,-0.375526,0.224556,-0.0401381,0.870713,0.604681,0.835548,-0.945597,0.991869,-0.960289,-0.616468,0.0353567,0.638052,0.125511,0.224424,-0.744511,0.901907,-0.396958,0.786852,0.0137392,0.000335835,-0.149007,0.960456,-0.45441,-0.123323,-0.189053,0.882576,-0.466571
0,0,180,0.891542,0.128848,0.14516,0.102851,-0.86057,-0.270957,0.195451,-0.189886,0.869996,0.521281,-0.399411,-0.389144,-0.819126,0.287222,0.0858137,-0.800366,0.477692,0.710925,0.781459,0.154666,-0.838969,-0.475759,0.129236,-0.148039,0.804241,-0.872645,-0.179124,0.197478,0.604307,0.753636,-0.0284154,0.421229,0.16602,0.753636,-0.0490563,0.421229,-0.559777
0,0,181,0.493145,0.45395,0.0356584,-0.220426,-0.0622508,-0.425354,-0.671008,-0.0649263,0.985799,-0.352648,0.485005,0.174332,-0.482878,0.07211,-0.801385,0.289213,-0.11914,-0.59188,0.152518,0.049504,-0.0454087,-0.304175,0.22955,0.92044,0.0126144,-0.852315,-0.146383,0.96522,-0.31372,0.767441,0.596201,0.0390439,0.0619097,0.767441,0.596201,0.0390439,0.0619097
0,0,182,-0.668007,0.0047791,-0.323811,-0.305881,-0.196225,0.234208,-0.449011,0.62739,0.69269,-0.146207,-0.27925,-0.336962,-0.189973,-0.314596,-0.610031,-0.0155967,-0.535578,0.516974,0.30774,0.582276,-0.883976,-0.179113,-0.627822,-0.345809,-0.763553,0.723052,-0.361643,-0.396541,-0.122139,-0.519482,-0.973103,0.533566,-0.0897796,-0.519482,-0.996729,0.533566,-0.131096
0,0,183,-0.172065,-0.906204,0.933252,-0.325519,-0.145395,-0.348237,-0.638124,-0.239753,0.925796,-0.219418,0.616089,0.636012,-0.57151,-0.897724,-0.86608,0.404338,-0.0121831,0.162775,0.118251,-0.963267,0.180419,0.160584,-0.613628,0.809219,-0.42639,0.473517,-0.385977,0.188288,0.371572,-0.349198,0.757511,0.891295,-0.711102,-0.374099,0.757511,0.610578,-0.711102
0,0,184,0.23692,-0.870116,0.282862,0.236963,-0.980442,-0.0914027,0.139119,-0.18576,0.730161,-0.994851,-0.415776,0.575982,0.784744,-0.78252,-0.42223,0.319747,0.924283,0.486915,0.931887,-0.473147,0.0252194,0.0218485,0.0884427,0.502726,0.476476,0.655262,-0.919679,-0.406187,0.0435183,-0.880898,-0.32295,0.882667,-0.276882,-0.880898,-0.32295,0.779442,-0.413021
0,0,185,-0.767888,0.954597,0.504151,-0.483713,-0.731732,0.533891,-0.435158,0.782619,-0.974057,0.779242,-0.100186,0.892412,-0.326582,-0.759301,-0.43251,-0.886407,-0.602546,0.88317,0.483321,-0.120223,0.758895,-0.0834664,0.0190882,-0.520796,0.379557,0.958145,0.100353,-0.179927,-0.76773,0.592582,0.422578,-0.038438,0.914918,0.473196,0.278353,-0.038438,0.766559
0,0,186,0.108975,-0.660622,0.590577,-0.250144,0.239471,0.486628,0.851307,-0.00482301,-0.900183,0.667493,-0.965491,0.482509,0.494533,0.373296,-0.610654,0.834336,-0.273856,-0.243821,0.967818,-0.404035,-0.670047,-0.796607,-0.102393,0.384996,-0.915659,0.473022,-0.773112,-0.000248658,0.0833504,0.506914,-0.312976,0.964109,0.0565189,0.503549,-0.182581,1.16876,0.0565189
0,0,187,-0.389039,-0.79486,0.308257,-0.060932,0.634165,-0.123332,0.394162,-0.540184,-0.680884,0.916417,-0.0901747,0.398818,0.0456466,0.912636,0.257749,0.876655,0.944338,-0.28528,0.277633,0.602192,0.937673,0.45193,-0.368297,0.587458,-0.471614,0.314868,-0.372448,-0.526789,-0.632388,-0.228418,-0.0137959,0.710155,0.700098,0.349016,-0.0137959,1.03419,0.700098
0,0,188,-0.565204,0.977565,-0.119151,-0.0336787,0.753493,0.0252907,-0.920471,0.6983,-0.880291,0.446852,-0.618052,0.452319,-0.364259,0.477213,-0.614352,-0.0937918,-0.156073,-0.386266,0.277151,0.403771,-0.227094,-0.665823,0.739644,0.225592,-0.791357,0.347898,-0.601358,0.259376,0.405954,-0.18358,0.53774,0.730001,0.402434,0.428425,1.00629,0.730001,1.16413
0,0,189,-0.481256,0.432389,-0.596395,-0.479499,-0.321602,-0.267368,0.193664,0.369312,-0.190542,0.0125954,-0.699106,0.525163,0.527493,-0.939997,0.921458,-0.759953,0.433706,-0.285146,0.504106,0.723446,0.589436,0.858708,-0.0395758,-0.799027,0.37247,0.725566,-0.931802,-0.444199,-0.42086,-0.422377,-0.760767,-0.648728,0.587692,-0.422377,-0.849442,-0.481215,0.88705
0,0,190,0.393686,0.275445,0.963166,-0.866343,-0.403155,0.571742,-0.213454,0.609536,-0.0440203,0.835775,0.965892,-0.196318,0.334376,-0.153077,0.277998,0.134559,0.44851,-0.831668,-0.857163,-0.623349,-0.977604,0.206235,0.963142,0.439784,-0.725596,0.709097,-0.74987,-0.468867,-0.828003,-0.926198,0.185374,-0.933266,-0.126895,-0.926198,0.278865,-1.00199,-0.126895
0,0,191,-0.188398,0.0809317,0.779536,-0.360714,0.476042,0.734403,-0.109188,-0.483815,0.834112,0.334443,-0.860393,0.904202,0.750263,0.394482,-0.212195,-0.0214559,0.318223,-0.933267,-0.142509,0.771619,0.417795,-0.0413125,-0.258592,-0.709559,0.123704,0.496038,0.0916669,0.905421,0.971994,0.353945,-0.0827702,-0.481362,-0.894344,-0.045242,-0.894624,-0.615463,-0.894344
0,0,192,-0.209763,0.591648,0.560468,0.785427,0.00239213,-0.200681,0.0945024,0.947348,0.656843,0.982474,-0.244825,0.384413,0.879917,0.462549,-0.882231,0.29158,-0.457399,0.651703,-0.878928,-0.645983,-0.73741,0.236353,0.364155,-0.741455,0.894987,-0.965839,-0.115384,-0.331941,-0.845507,0.111899,-0.795399,0.951064,-0.145524,-0.225087,-0.795399,0.951064,-0.778831
0,0,193,0.589916,-0.0856121,-0.358892,0.712327,-0.756988,0.120603,-0.105064,-0.0715401,0.0972486,-0.120261,-0.785047,0.538501,0.758786,0.703004,0.544515,-0.493278,0.948315,0.960684,0.825472,-0.222061,-0.347844,-0.351005,-0.0484248,-0.0683785,0.624759,0.315662,0.694056,0.979698,-0.456758,0.439238,0.987243,0.684997,-0.0274868,0.284793,-0.0472378,0.57388,-0.293411
0,0,194,0.66086,-0.869279,-0.715251,-0.523651,-0.144579,0.959697,-0.52139,0.89765,0.358367,0.786143,0.962111,-0.223338,-0.207621,0.743655,-0.460242,0.844902,0.0389293,0.00165425,0.838063,-0.0613983,-0.562652,-0.469633,-0.0335105,-0.538685,-0.613461,0.307209,-0.824851,-0.770071,0.102206,0.808726,-0.139747,-0.363435,-0.260345,0.790273,-0.11952,-0.463229,-0.260912
0,0,195,-0.793612,-0.454037,0.365633,-0.330775,-0.587617,-0.520722,-0.227058,-0.318865,0.31963,-0.256298,0.439785,-0.911525,0.480292,0.725373,-0.978035,-0.107512,0.452975,0.953425,-0.958998,-0.0499763,-0.603409,0.0789899,0.697369,-0.814322,0.524534,0.990114,-0.32293,-0.880111,-0.666211,0.368771,-0.073813,0.187325,0.5555,0.368771,-0.389493,0.187325,0.153265
0,0,196,0.522254,0.223328,0.455804,-0.330724,-0.177537,0.294024,-0.439192,-0.997516,-0.215363,-0.354929,-0.230884,-0.84004,-0.49545,0.477194,-0.68075,0.000613911,0.487562,0.211202,0.198028,-0.179982,0.444527,0.179714,0.0978265,0.981404,-0.289077,0.197089,-0.438923,0.963358,0.572903,0.929252,-0.14374,0.299024,0.656988,0.866152,0.00745663,-0.0236028,0.656988
0,0,197,0.764481,-0.118489,-0.903022,0.424127,-0.0847592,-0.848687,0.38251,-0.379156,0.589226,0.923317,-0.587079,0.627397,-0.226301,-0.46262,0.205791,0.155898,-0.105119,0.418202,0.405618,0.499915,-0.78945,-0.977495,-0.3205,0.859658,-0.878921,-0.0821171,0.500301,-0.896744,0.835918,-0.662407,0.457875,-0.780276,0.278915,-0.662523,0.457875,-0.84426,0.278915
0,0,198,-0.76979,-0.395248,-0.579878,0.605484,0.851366,-0.579384,0.65683,0.0834518,-0.250269,-0.437495,-0.481409,-0.599115,0.315224,-0.52933,-0.63919,0.715234,0.733505,-0.175262,0.286823,0.686449,-0.419486,-0.0587201,0.234158,0.669815,-0.00573928,-0.41277,-0.343167,0.433053,-0.3735,0.972332,0.0932655,-0.403331,-0.522009,0.887981,0.0932655,-0.271346,-0.522009
0,0,199,0.419433,-0.0238045,0.816517,-0.158489,0.377386,-0.564706,0.68006,-0.111643,-0.821216,0.226032,-0.262286,0.883864,0.478659,-0.934235,0.739261,0.359116,0.184266,0.768384,-0.776341,-0.593374,-0.748774,0.184414,0.640491,0.53129,-0.110114,0.421218,-0.377312,-0.138331,-0.258385,0.62265,0.716092,0.978631,0.915025,0.620395,0.641749,0.902058,0.915025
0,0,200,0.202093,-0.0233459,-0.177808,-0.302146,-0.566442,0.341605,0.00506332,-0.405383,0.511946,-0.0327349,0.312265,-0.315339,0.427671,0.0367572,-0.773306,-0.691472,-0.437514,-0.659897,0.618634,-0.705084,-0.816411,-0.365781,0.327354,0.722782,0.787733,0.875262,0.599385,0.022521,0.725774,-0.0727784,-0.398744,-0.621896,0.875756,-0.0727784,-0.960357,-0.621896,0.875756
0,0,201,0.198642,0.306739,-0.880362,0.617101,0.868366,0.00745415,0.718944,-0.996928,0.449212,-0.997768,0.359262,-0.00169514,-0.784263,-0.979623,-0.472256,0.723931,0.324724,-0.647623,0.49959,0.0983372,-0.522409,-0.807069,-0.687711,0.0972466,0.24501,-0.0832519,-0.257061,-0.782205,-0.312677,0.735826,0.990728,-0.888935,0.325712,0.629299,0.80432,-0.877268,0.325712
0,0,202,-0.503443,0.435445,-0.456423,0.894425,-0.389756,-0.665195,-0.184872,-0.0602951,0.375982,0.665056,-0.434096,-0.935763,-0.623325,0.318708,-0.618369,-0.338042,0.604142,-0.257958,0.0502931,-0.0950629,-0.79331,0.274432,0.766687,0.446887,-0.6835,0.15085,0.45199,-0.220794,0.666656,0.243926,-0.901195,0.840679,0.487419,0.243926,-0.937376,0.840679,0.355248
0,0,203,0.381299,0.975294,-0.0470218,-0.238037,0.501924,0.476608,0.809401,0.138219,-0.777834,-0.973685,-0.909918,-0.383666,-0.284731,-0.687104,-0.115521,-0.494752,0.438113,0.787395,-0.255545,0.881327,-0.0979036,-0.411916,0.141888,-0.446626,0.213827,-0.92484,0.99488,0.927077,0.368063,0.662341,-0.0553799,-0.725871,0.613044,1.29555,0.0462666,-0.208614,0.653759
0,0,204,0.544271,-0.703296,0.515755,-0.333828,0.0501638,0.967666,-0.93727,0.446816,-0.887251,-0.0559279,0.206527,0.113051,0.218955,0.216314,0.700264,-0.735278,0.232908,0.99444,0.0912542,0.525923,0.947947,-0.00201034,-0.0351425,-0.972798,-0.195609,-0.293088,0.641093,-0.233729,0.162807,0.374704,0.426327,0.256659,0.269486,0.406295,0.674257,0.256659,0.358801
0,0,205,-0.83051,0.709188,-0.0222738,-0.578793,-0.518498,0.564418,0.305673,0.80117,-0.488276,-0.793926,-0.416137,-0.0362307,0.579033,-0.0221091,-0.862869,-0.482523,0.730616,-0.199193,0.881394,-0.636523,-0.725554,0.807353,0.718396,0.523797,0.0943041,-0.831779,0.502054,0.680792,0.21857,0.0927149,-0.787238,-0.172562,0.765929,0.0927149,0.476062,-0.192275,0.937792
0,0,206,0.615601,0.116336,0.353212,-0.0651893,-0.675818,0.385683,-0.795953,0.586224,-0.847427,-0.761413,0.590581,0.666291,-0.929791,-0.711676,-0.422432,-0.197402,-0.851266,0.48595,-0.470659,-0.561133,-0.431832,-0.246143,0.466397,0.188292,-0.986794,-0.927124,-0.73134,0.355398,-0.882596,0.490897,-0.234,-0.649797,-0.591639,0.490897,1.1897,-0.649797,-0.591639
0,0,207,0.135979,-0.608264,-0.60396,0.492551,0.734648,-0.52554,-0.181778,-0.951473,-0.422099,0.884136,-0.160727,0.181293,-0.56304,0.497168,0.611944,-0.806199,0.0461483,0.412948,-0.00355037,0.338825,-0.25996,0.388594,0.44308,-0.357115,0.182169,-0.72492,-0.514223,-0.99904,0.822374,0.791012,0.775122,0.549566,-0.0122995,0.928397,0.775102,0.549566,-0.0122995
0,0,208,-0.216803,-0.558516,0.56871,-0.50559,0.0295068,0.336327,-0.885859,0.421638,-0.340962,-0.0679081,-0.607183,0.926771,-0.121287,-0.934611,-0.421353,0.167837,0.180313,-0.0863203,0.687569,0.38019,0.806665,0.320101,-0.498517,-0.181717,-0.945277,0.216315,-0.0359205,0.272686,0.686368,-0.539495,0.990604,0.570621,-0.306509,0.87062,1.24997,0.570621,-0.0843379
0,0,209,-0.670674,-0.717496,0.920526,0.232185,0.761089,-0.301993,-0.0810148,-0.415143,-0.0648031,-0.0393922,0.470871,0.807346,-0.667507,0.278812,-0.970061,-0.0956664,-0.583639,0.915961,-0.453565,-0.196637,0.819471,0.800318,0.976496,0.118349,0.618992,-0.129236,-0.474715,-0.330501,-0.183808,0.606771,0.42237,0.0195309,-0.00081694,0.117815,0.603722,0.0089093,0.0442965
0,0,210,-0.910095,0.898505,-0.390155,-0.0895923,-0.981445,-0.231133,-0.911723,0.0449948,-0.821805,0.854775,-0.348871,-0.14242,-0.260009,-0.224093,-0.0684552,-0.990783,-0.383696,-0.914356,-0.451624,-0.897116,0.187076,0.745788,0.0384509,0.901657,-0.640096,-0.359399,-0.408925,-0.435683,0.667161,-0.981385,-0.969568,-0.746317,0.197692,-0.981385,-0.969568,-0.746317,2.33655
0,0,211,0.792031,0.604187,-0.405851,0.244994,-0.546914,-0.886425,0.0165247,0.305424,0.877198,0.655769,0.627068,-0.501297,-0.123016,0.89215,-0.967456,0.708073,-0.318048,-0.777956,0.869916,0.46824,0.252018,-0.332855,-0.56808,-0.196555,-0.267366,-0.693518,-0.7269,-0.18953,0.585018,-0.262535,0.783906,0.0157357,0.239297,-0.262535,0.783906,-0.57928,-0.384393
0,0,212,-0.413044,0.934426,-0.43509,0.953775,-0.965311,0.561777,0.293585,0.309976,-0.0727793,0.532248,-0.118453,-0.0545959,0.304997,-0.093917,0.640386,0.825476,0.767426,-0.00900396,-0.211774,-0.00721831,-0.82746,-0.305882,-0.191103,0.399591,-0.0389012,-0.628964,-0.90671,0.0468637,-0.788279,0.6255,0.80356,-0.310286,-0.956143,0.6255,0.80356,0.107023,-0.956143
0,0,213,-0.72246,-0.89532,-0.553735,0.644793,-0.778516,-0.515142,0.210656,-0.42258,-0.413756,0.0144293,-0.758487,-0.333981,-0.550062,0.020348,0.487749,0.104474,0.46907,-0.56657,-0.717877,-0.839048,-0.979788,0.282417,0.615445,0.271643,-0.512587,-0.0196294,-0.449406,0.235121,0.87284,0.94736,-0.338992,-0.273727,0.492678,0.94736,-0.338992,1.01941,0.343409
0,0,214,-0.424347,0.678046,-0.796026,-0.851109,-0.680955,-0.970269,-0.327631,0.60637,-0.15987,-0.884761,0.0385641,0.952465,0.785317,-0.215631,0.456843,-0.693219,0.331841,-0.874984,0.40716,0.204667,0.248197,-0.630862,-0.148647,-0.257391,0.773225,-0.979119,-0.592425,0.466688,0.337677,0.372353,0.214097,-0.0400295,0.571221,0.372353,0.214097,-0.0400295,0.428918
0,0,215,-0.810848,-0.639726,0.88121,-0.647775,0.124024,0.191896,-0.0599573,0.0820947,0.408201,-0.857403,0.920196,-0.025964,0.1833,0.963881,-0.833895,0.726487,0.867514,-0.248102,0.662995,-0.0543257,0.521467,-0.259321,-0.332185,-0.372749,0.523568,0.346829,-0.261447,0.0675149,0.723192,-0.660081,-0.276475,0.390207,-0.516381,-0.660081,-0.276475,0.390207,-0.379011
0,0,216,0.25167,0.400048,-0.719047,0.947771,-0.763092,0.826517,0.438027,0.768572,0.203824,-0.246914,-0.341294,-0.0532476,-0.543683,-0.310985,0.826406,-0.174209,0.834499,-0.764434,-0.404091,0.839502,-0.269741,0.950385,-0.168105,0.540634,-0.355075,0.517836,-0.0197489,-0.831374,-0.352871,-0.698455,-0.447226,0.369681,-0.409379,-0.698455,-0.179626,0.377806,-0.232596
0,0,217,-0.723977,-0.473055,-0.446894,0.0268212,-0.662281,0.718659,0.400239,0.390532,-0.967027,0.166909,-0.958579,-0.181925,-0.787993,0.0931829,0.955328,0.227776,0.43054,0.546711,0.952361,-0.930238,-0.76203,-0.24078,-0.976025,-0.914292,0.128864,0.575357,0.972796,-0.593206,0.311045,0.862027,0.0728325,-0.598145,-0.628277,0.862027,0.968172,0.689482,0.0184555
0,0,218,0.531929,0.117654,-0.0925406,-0.130694,-0.422049,-0.995574,0.66606,-0.901334,0.835496,0.468225,0.907992,-0.547376,0.0832548,-0.0359998,-0.941511,0.826987,0.0823399,-0.686618,-0.0517786,0.79803,0.674174,-0.186008,0.681255,0.0384893,0.738374,-0.900108,0.486181,-0.5897,0.948861,0.94321,-0.337643,-0.316897,-0.580457,0.94321,-0.337643,-0.761423,-0.580457
0,0,219,0.688089,0.315437,-0.958017,0.419678,-0.0912074,-0.198901,0.599474,0.962699,0.351742,-0.791897,0.566718,-0.6316,0.469425,-0.599349,-0.301609,-0.54039,0.770657,0.501889,-0.47505,0.164964,-0.688592,0.749078,-0.403633,-0.285161,0.26637,-0.632664,-0.124264,-0.648358,0.236453,-0.959898,-0.87972,0.536396,-0.100762,-0.959898,-0.87972,0.484131,-0.306969
0,0,220,-0.593309,0.724208,0.13103,0.898021,-0.485521,-0.357716,0.978519,-0.0165295,-0.299637,0.966424,-0.222018,-0.334596,0.38993,0.0440454,0.475705,0.694058,-0.850361,-0.683926,-0.0128179,0.817105,-0.854774,-0.255549,-0.0596075,0.478124,-0.293097,-0.211616,-0.543302,-0.562284,-0.955392,-0.0298368,-0.204304,0.553196,-0.889824,-0.0298368,-0.204304,0.501894,-0.889824
0,0,221,0.0554096,-0.697573,-0.671008,-0.733387,0.985689,0.806487,0.631724,0.0955202,0.467908,0.675961,-0.618185,0.383212,-0.95549,-0.430844,0.383894,-0.587223,0.399901,0.436722,0.117407,0.819648,0.657757,-0.312319,0.035218,0.474986,-0.983207,0.895751,-0.707745,0.468997,-0.539398,-0.902692,-0.794499,-0.320276,-0.380751,-0.230878,-0.18744,0.0875234,-0.282571
0,0,222,-0.650015,0.43292,-0.625632,-0.0728309,0.12746,-0.195879,0.704951,0.548679,0.137426,-0.00468377,0.495532,0.921576,0.143258,0.408595,-0.539503,-0.132359,-0.419824,-0.437981,-0.282487,0.474965,-0.4911,0.186273,0.429201,-0.276811,0.821585,0.606088,0.298228,0.325082,-0.609187,-0.29383,0.0541527,-0.027499,-0.455644,-0.295952,0.0541527,0.242519,-0.339082
0,0,223,-0.96147,0.896061,-0.426442,0.139788,0.243284,-0.672374,0.0433965,-0.915141,-0.0984332,-0.209461,0.758332,0.301744,-0.258547,-0.421935,0.991703,0.979401,-0.959964,-0.810351,0.885164,0.341359,-0.972398,-0.0888473,0.932248,-0.264562,-0.565291,-0.572888,-0.158246,-0.840154,-0.0442758,0.61947,-0.827311,-0.988007,-0.0916227,0.61947,0.0920925,0.669677,-0.0916227
0,0,224,-0.799752,0.240233,0.80293,-0.567008,-0.768515,-0.448923,-0.735053,0.604159,-0.561041,0.587633,-0.946186,0.391558,-0.334566,-0.0105725,0.560464,-0.988853,-0.0397203,-0.973945,0.0531383,0.0332129,0.904101,0.797164,0.669572,0.479606,0.0699868,0.0730996,0.581778,0.200693,-0.0581114,-0.803506,-0.60411,0.281797,-0.281475,-0.789695,-0.222525,0.281797,0.653752
0,0,225,-0.371507,0.194522,0.745132,0.185652,-0.7524,0.118689,-0.632709,-0.469956,-0.064124,-0.870642,0.809381,-0.234243,0.964986,0.985565,0.572154,-0.890542,0.162068,0.0315499,0.000720283,0.325742,-0.759912,0.624344,0.0785882,0.966016,0.74813,-0.898626,-0.226895,-0.743367,0.126263,0.300975,0.57312,-0.192374,-0.611581,0.263088,0.828795,-0.0553621,-0.544118
0,0,226,-0.572807,-0.417502,-0.807226,-0.159131,-0.290202,0.394621,-0.382252,-0.81233,0.0583409,-0.907825,0.245092,-0.910852,-0.557814,0.643265,-0.452654,-0.48621,-0.0463396,0.502938,-0.68007,0.0545169,0.145742,-0.850654,-0.963481,-0.216472,-0.652042,-0.0426644,-0.818757,-0.732595,0.59129,0.987404,0.111734,0.320055,-0.0455431,0.987404,0.486598,0.320055,-0.0455431
0,0,227,-0.466565,0.974031,-0.0373623,0.632866,-0.0992408,-0.30063,-0.0024551,0.588355,0.985203,0.704315,-0.012195,-0.86361,0.614857,-0.269907,0.144854,0.482107,-0.947501,0.932609,0.383168,-0.752918,-0.0465884,-0.459968,0.351161,-0.784258,0.105729,-0.552829,0.482447,0.774341,-0.829603,-0.634832,0.205053,0.00681645,0.967394,-1.37132,-0.653151,-0.0791362,-0.130599
0,0,228,0.667533,-0.828533,-0.320793,0.0321361,-0.866746,-0.843918,0.652776,0.711695,0.564207,0.854764,-0.858027,-0.830316,0.294677,-0.621279,-0.737701,-0.510343,0.395121,0.429393,-0.59304,0.0765731,-0.442123,0.179216,0.746033,-0.893593,0.95845,-0.281398,0.53117,-0.865466,0.595126,0.377265,0.0485471,-0.71517,-0.760367,0.377265,0.0485471,-0.529047,-0.349752
0,0,229,0.677487,-0.170981,-0.506281,-0.226369,-0.941949,-0.524122,0.349485,-0.213094,-0.542452,0.809958,0.682228,-0.569061,0.488207,-0.366743,0.830728,-0.739979,-0.95648,-0.135514,0.0544831,-0.994192,-0.985581,-0.730918,0.0870893,0.954074,0.0604773,0.830878,0.319868,0.619345,0.811917,-0.445537,-0.165091,-0.645,-0.251681,-0.445537,0.266774,-0.336143,-0.251681
0,0,230,0.128884,-0.750123,-0.517071,0.641323,-0.211865,0.551703,0.476612,0.942952,0.00729895,-0.847849,0.679621,-0.0922375,-0.573133,-0.183924,0.520677,-0.804294,-0.92809,-0.870889,-0.135201,-0.148747,0.369005,0.175419,-0.121102,-0.354698,-0.01963,0.891012,-0.315107,0.914965,0.0844651,0.172361,0.52699,-0.378683,-0.899737,-0.167274,0.304501,-0.0764408,0.0169386
0,0,231,-0.861315,0.549812,0.0567325,0.947516,-0.0205145,-0.337833,0.320547,0.360247,0.695871,-0.300221,-0.2719,0.304422,-0.806555,-0.183545,0.995967,-0.694604,0.566642,-0.505379,0.168694,-0.226057,-0.0287122,-0.731909,-0.684342,-0.834533,-0.489393,0.0260636,0.0692148,0.887394,-0.207503,-0.0216302,-0.313445,-0.741498,-0.899289,-0.0216302,-0.313445,-0.546255,-0.973214
0,0,232,-0.970596,0.739428,0.59509,0.136832,0.0831199,-0.763198,0.18346,-0.515916,-0.512558,0.612538,0.539485,-0.513761,0.425615,0.0104208,-0.348052,0.594164,0.90305,0.587502,-0.762827,-0.947632,0.280604,0.785556,0.239648,0.78262,0.375204,-0.461972,0.849203,0.873455,-0.234234,0.461261,0.803146,0.848116,0.476137,0.549767,0.803146,0.111028,0.476137
0,0,233,0.45412,-0.784628,-0.643862,-0.235576,0.0256473,0.880262,-0.0650556,-0.719037,-0.608274,0.170992,0.690601,-0.328521,0.104816,-0.884367,0.470323,0.93834,0.998777,0.735857,-0.179354,-0.636935,-0.909144,-0.103668,-0.549578,-0.513641,0.807572,-0.70874,0.120784,0.414434,0.342228,-0.591073,0.36631,-0.313193,0.829118,-0.591073,0.802606,-0.125951,0.829118
0,0,234,-0.263124,0.536131,-0.208512,0.197326,0.523714,-0.739133,0.455237,0.541647,0.210115,0.936321,0.36459,0.332969,-0.194933,0.858335,-0.697101,0.701094,0.589125,0.801116,-0.0499343,-0.0361189,0.0963244,0.037275,-0.00461432,0.109813,0.383241,0.803003,-0.57456,-0.258402,0.850474,-0.277838,-0.178808,0.42113,0.822832,-0.554387,-0.178808,0.273956,0.571081
0,0,235,0.66872,0.11396,-0.80457,0.576752,0.95155,-0.460908,-0.112251,0.974375,-0.580948,0.326853,-0.649318,-0.372936,0.544423,0.401087,-0.983761,0.32368,0.87902,0.854612,0.207243,0.858196,0.343285,0.0318621,0.944755,-0.94858,-0.206641,-0.131429,0.57365,-0.178107,0.923713,-0.65319,-0.322653,-0.147815,0.579494,-0.190469,-0.322653,-0.233005,1.04222
0,0,236,0.536275,-0.500963,0.17418,0.513067,-0.30862,0.624857,-0.540054,0.111116,0.17057,-0.920535,-0.920775,-0.424588,-0.27796,0.330239,-0.458455,0.94608,-0.48239,0.229841,0.53549,-0.29156,0.741678,0.467469,0.773272,-0.734451,-0.0255979,-0.788496,0.644838,-0.757208,0.367778,-0.780469,-0.459448,0.67711,-0.705294,-0.780469,-0.0463797,0.67711,-0.610393
0,0,237,-0.245643,-0.245881,-0.0362888,-0.357303,-0.195382,-0.68098,-0.816716,-0.436284,-0.0317802,-0.709771,0.913731,0.0901788,0.429139,-0.00061593,-0.675055,0.805315,-0.882762,0.232193,-0.386256,-0.554933,0.875534,0.629926,0.9952,0.538311,-0.52755,-0.991616,-0.0734487,-0.0782588,-0.131747,0.565406,-0.457843,-0.68553,0.524205,0.565406,-0.457843,-0.68553,0.524205
0,0,238,0.82404,0.268187,-0.878033,0.00922367,0.895075,0.270723,0.155701,-0.263582,0.345819,0.844018,-0.00921079,0.382194,0.744412,0.720478,0.711163,0.363862,-0.0311863,-0.242195,-0.660478,0.439804,0.999036,0.385744,0.811304,-0.709852,0.199103,-0.811462,0.287306,0.0977648,-0.547383,0.979797,0.456892,0.462301,-0.611839,-0.213165,0.0784136,-0.00348788,-0.613674
0,0,239,0.122858,0.633377,0.34631,0.0841464,0.892561,-0.260043,0.109956,0.321423,0.614408,0.712477,0.286644,0.54891,0.212823,-0.73226,-0.776581,-0.147796,0.363575,0.88584,-0.0549633,0.344257,0.196798,-0.52356,0.554838,0.84356,-0.735187,0.0588785,0.146724,0.429025,-0.810868,0.155274,0.0497806,0.300064,0.896377,-0.772075,0.0497806,0.300459,0.318135
0,0,240,0.110768,-0.67582,-0.849649,-0.595045,-0.690877,0.137468,0.708399,0.603498,-0.676827,0.148912,0.226419,-0.0924052,0.431922,0.348332,-0.0524229,0.365456,-0.574112,-0.0491427,-0.890991,-0.186207,-0.140091,0.440155,0.19179,-0.375739,0.817001,0.528354,0.0298313,-0.0622132,-0.831132,0.622004,0.710008,-0.353664,-0.482415,0.622004,0.756472,-0.0908737,-0.291076
0,0,241,-0.761735,-0.835703,-0.238864,0.927776,-0.846118,-0.623065,-0.0321083,-0.629178,-0.485823,-0.625542,-0.426846,0.251823,0.568172,0.184198,-0.221105,-0.649225,-0.0764479,-0.627641,-0.881907,0.147777,0.283249,-0.535916,-0.578771,0.673452,0.973755,-0.581237,0.323967,0.83487,-0.81037,0.780478,0.971541,-0.340292,-0.452758,0.780478,0.971541,1.17327,-0.452758
0,0,242,-0.956454,-0.901946,0.909608,-0.467663,0.675598,-0.797038,-0.348789,0.787972,0.745716,0.364129,0.555803,-0.0788337,-0.195332,-0.788831,0.902137,-0.649457,-0.761223,0.317183,0.715043,-0.102875,-0.986091,0.12527,-0.874144,-0.843776,-0.296358,0.639247,0.673325,-0.551918,0.227999,-0.383086,0.860207,-0.186132,0.653967,-0.95246,0.860207,-0.186132,0.295527
0,0,243,-0.441516,-0.177745,0.459321,0.537924,0.349082,0.639236,0.744576,-0.713561,0.652768,0.525401,0.337221,0.548661,0.204234,0.886013,-0.579057,-0.671078,0.420247,0.169956,0.203248,-0.830872,-0.377368,-0.762184,-0.237436,0.157737,0.336923,-0.268643,-0.883956,-0.176267,-0.150264,0.820654,-0.572686,-0.0952445,-0.518812,0.57469,-0.92423,-0.586567,-0.518812
0,0,244,0.926696,-0.0408584,0.91628,0.69801,-0.36198,-0.153785,-0.586566,0.586362,-0.270684,-0.781784,0.844205,0.436994,-0.916747,-0.621522,-0.413268,0.466537,0.854313,-0.799288,0.971161,0.658159,-0.0627444,-0.742995,-0.860509,-0.630005,0.791528,0.345709,-0.23048,-0.0344656,0.331829,-0.921031,-0.133364,0.93998,0.102162,-0.921031,-0.133364,0.93998,0.399195
0,0,245,-0.193043,0.12427,-0.240905,0.601418,0.78234,0.556247,0.0300009,-0.602713,-0.874956,0.336148,-0.177713,0.495593,-0.958374,0.991923,-0.738164,-0.868055,-0.630057,-0.781566,0.746328,0.273868,-0.775708,-0.356946,-0.35711,-0.318973,0.409584,0.694827,0.571105,0.548237,0.536588,-0.204055,0.101163,0.740541,-0.511664,0.354876,0.316833,0.329045,-0.511664
0,0,246,0.701178,0.26697,0.502274,-0.401668,-0.240503,-0.774777,0.505951,0.250533,0.582148,0.660538,-0.0170714,-0.30707,0.709768,-0.356713,0.258278,-0.374883,-0.502791,0.0305036,0.914578,-0.401006,-0.892831,-0.462256,-0.89279,-0.0598079,0.96359,-0.523991,-0.552978,-0.421345,0.251894,0.772278,0.574901,0.691319,0.36642,0.772278,0.574901,0.202826,-0.696914
0,0,247,0.650929,-0.401322,-0.716523,0.790231,0.00992832,-0.0158473,0.453715,0.582783,0.993408,-0.458255,-0.901123,0.659309,0.116742,-0.0235095,0.00438146,0.147102,-0.0246701,-0.00497636,-0.476317,0.568707,0.589404,-0.955706,0.813712,0.0486708,0.805287,0.713276,-0.417519,0.1761,-0.89071,0.443643,-0.885897,0.0912978,-0.281794,-0.234291,-0.885897,-0.912499,-0.287251
0,0,248,-0.541978,0.116051,-0.215567,-0.134388,-0.820276,-0.574119,-0.377388,0.60452,0.418655,-0.425478,0.767985,0.241544,-0.538117,-0.287456,-0.714572,-0.194161,0.722098,0.432284,-0.283451,-0.498802,0.254495,-0.4679,-0.280923,-0.744325,-0.333587,-0.142571,0.852475,0.721255,0.356044,-0.218496,0.985517,-0.138573,0.579476,-0.218496,0.985517,-0.138573,-0.360161
0,0,249,0.961753,-0.813898,0.588697,-0.896014,-0.883065,0.84156,0.0360414,-0.406433,0.413556,-0.335732,-0.649193,0.337833,-0.643959,0.310488,-0.754953,0.629198,-0.209687,0.564437,0.28451,0.947195,0.296064,0.842868,0.00209405,-0.662803,-0.834208,0.611937,0.693789,0.393918,0.368421,-0.45176,0.331937,-0.367862,-0.477278,-0.478753,0.107363,-0.502102,-0.477278
0,0,250,0.813575,-0.836211,-0.218178,-0.481358,0.36201,0.586385,-0.525291,-0.0401542,0.601622,-0.779339,0.213434,-0.0571584,0.0701653,0.0193422,0.549773,-0.698165,-0.166907,-0.716051,0.211384,-0.699208,-0.172346,0.348601,0.621931,0.904905,-0.400264,0.0902884,0.309763,0.333959,-0.530853,-0.0860126,-0.392573,-0.559717,-0.380951,-0.153836,-0.481743,-0.559717,-0.380951
0,0,251,0.557096,-0.954918,-0.0884615,-0.532326,0.167363,-0.906744,-0.834639,0.197825,-0.120568,-0.487203,0.872613,-0.615605,0.186691,-0.638516,0.784715,0.209511,-0.0967816,-0.241889,-0.361506,-0.506985,-0.157228,-0.369444,-0.384627,-0.141996,-0.113648,0.0225254,-0.222031,-0.248188,-0.946256,0.288038,-0.874729,0.577115,0.0214396,0.290648,-0.874729,0.577115,0.260358
0,0,252,0.445361,-0.668442,-0.852887,0.507677,-0.139189,-0.305041,0.653089,0.667105,-0.701748,-0.353468,0.0219969,-0.305347,0.3336,0.238817,0.874348,0.083508,-0.0726404,-0.665844,0.712835,-0.968063,0.344958,-0.604735,-0.386329,0.453357,-0.0959021,-0.207994,0.565881,-0.658222,-0.332376,-0.66526,-0.177406,-0.548077,-0.819404,-0.66526,0.872257,0.362887,0.543289
0,0,253,-0.531467,0.203562,0.672355,0.740885,0.375703,-0.583267,0.0298804,0.0849682,0.300375,-0.995636,0.256481,-0.436555,0.932554,-0.458072,-0.906348,0.716392,-0.075577,0.282786,-0.682241,0.665659,0.313603,0.802836,0.0189458,0.681156,-0.280938,0.337857,0.940176,0.246485,0.48488,0.932442,0.952397,0.864745,-0.331488,-0.154425,1.12832,-0.00935742,0.0286315
0,0,254,0.493939,0.16214,-0.259569,-0.465464,0.021833,0.918162,-0.253533,0.413725,0.933064,-0.620419,0.8288,0.907746,-0.395209,0.437692,0.870863,-0.21913,0.814896,-0.182973,-0.382078,-0.520832,0.143355,0.193925,0.291384,0.360083,-0.0538629,0.154497,0.584838,-0.938038,-0.450513,-0.702284,0.0230034,0.222412,0.325375,-0.788107,-0.460354,0.222412,-0.095954
0,0,255,-0.0877978,0.762689,-0.252349,-0.6001,-0.916167,-0.659772,-0.119688,-0.839839,-0.257735,-0.45174,0.586802,-0.640799,0.195964,0.289318,0.334815,0.926304,0.0412139,0.833608,0.846787,-0.67473,0.63533,-0.096255,-0.361692,-0.858562,0.662087,0.295503,-0.463296,0.681101,0.113239,-0.883205,0.286067,0.0501467,0.99329,-0.883205,0.618241,0.0501467,0.99329
0,0,256,0.650088,-0.355343,-0.708156,0.493398,0.478751,0.18088,0.237022,0.548795,0.604268,0.748389,-0.754068,0.375274,-0.293883,-0.499789,-0.192052,0.721839,0.989584,0.791844,-0.636294,-0.221618,-0.689541,0.435201,0.492195,-0.401204,-0.643833,-0.315577,0.36524,0.581861,0.993098,-0.375306,0.653817,-0.440739,-0.633062,-0.368043,0.700759,-0.220539,-0.403884
0,0,257,-0.210377,0.216264,-0.3168,-0.491419,-0.273538,-0.562687,-0.9372,-0.224001,-0.611146,-0.996258,0.307605,-0.137139,-0.051861,0.318781,-0.414438,0.346969,-0.39998,-0.592903,0.174171,0.505425,-0.136323,0.557128,-0.54249,0.639357,0.710342,0.817314,0.768013,-0.0625642,0.316296,0.381459,0.499598,-0.770384,0.317834,0.381459,0.499598,-0.770384,0.317834
0,0,258,0.0235588,0.292069,0.15206,-0.574119,0.891762,0.120472,0.0426537,-0.515245,0.225867,-0.593063,0.485685,0.389751,0.354849,-0.550003,0.0928597,0.0327914,0.751864,0.68319,-0.297553,-0.174651,-0.314066,0.255661,-0.142801,0.244161,-0.0946515,0.489852,-0.0526539,0.546103,0.604851,0.847851,0.79476,0.284197,-0.866437,-0.0796497,0.563289,0.206757,-0.866437
0,0,259,0.18844,0.315828,-0.837312,0.555994,0.660402,-0.48282,0.656631,-0.631179,-0.949125,0.813138,0.293856,0.561775,-0.559142,-0.539772,0.122052,-0.0961546,-0.461384,0.293419,-0.621803,0.0528076,0.58115,-0.558625,0.798009,-0.771181,-0.392732,0.704012,0.663593,0.723229,0.187854,-0.109811,-0.209729,-0.796049,-0.444531,0.779644,-0.342377,0.296244,-0.444531
0,0,260,0.153921,0.284834,-0.922817,-0.466534,0.0108175,0.106441,-0.413351,0.124785,-0.378733,-0.385291,0.0667173,-0.151923,0.194387,0.299936,-0.960835,-0.35348,-0.883357,-0.0750481,0.555737,0.31433,-0.176363,0.43205,-0.266169,-0.462771,0.365203,0.857256,-0.44922,-0.55273,-0.550349,0.587381,0.440324,0.513601,0.512414,0.608067,0.490232,0.513601,0.519671
0,0,261,-0.0578629,-0.958164,-0.987636,0.473965,-0.716128,-0.845345,-0.237787,0.524861,0.292666,-0.90748,0.236733,-0.825888,-0.201639,0.884722,-0.683052,0.372454,-0.314049,-0.49052,-0.20968,-0.59908,-0.0571388,-0.846897,-0.549358,-0.0192771,-0.53224,-0.792139,-0.120495,0.426523,0.305688,-0.797608,0.447539,0.162314,0.959598,-0.797608,0.447539,0.0637347,0.487936
0,0,262,-0.938322,0.480975,-0.0627326,0.525446,0.0729551,0.48835,0.0814864,0.61137,-0.869287,-0.68729,-0.802846,-0.464077,-0.771968,-0.261789,0.801427,-0.00344451,0.970635,-0.659154,-0.0665374,0.120591,-0.680336,-0.33994,-0.70406,-0.723844,-0.917414,-0.827781,-0.666358,0.389146,-0.320189,-0.963141,0.0509072,-0.559501,0.994416,-0.962311,0.0747876,-0.489428,1.02463
0,0,263,-0.436004,-0.0358126,0.32326,-0.82947,-0.639846,-0.910961,0.126633,-0.850611,0.0553666,0.890069,0.057269,0.0442527,-0.502739,0.949457,0.6327,-0.0358052,-0.479665,0.357836,0.246838,-0.930298,0.374996,0.984869,0.833092,0.398009,-0.396194,-0.202071,-0.506041,0.968805,-0.427735,0.307721,-0.948583,0.981983,0.861243,0.306864,-0.948583,0.909641,0.861243
0,0,264,0.157304,-0.654818,0.29569,-0.708949,0.602521,-0.448365,-0.661886,0.290865,0.0151429,0.331597,-0.128695,-0.112271,0.615598,-0.034032,-0.855836,-0.159749,0.600672,-0.561938,0.266233,-0.621526,-0.934508,-0.0462927,-0.324589,-0.671434,0.77514,-0.502932,0.926922,-0.70266,-0.745363,-0.0959366,0.788672,-0.765276,-0.362234,0.165232,0.788672,-0.765276,-0.0564171
0,0,265,0.607762,0.181154,0.964193,-0.949297,-0.569014,0.625633,0.367123,0.0568203,0.144518,0.188711,-0.802328,0.329173,0.89438,-0.198175,0.483215,0.190026,-0.128092,-0.0463569,-0.164841,0.880391,0.885486,0.168198,0.933168,-0.0364254,0.0825322,-0.430278,0.490427,0.569731,-0.12985,0.997606,0.279446,0.78676,-0.759943,0.997606,0.20481,0.730915,-0.788891
0,0,266,0.63063,0.410928,-0.169965,-0.343741,-0.824551,0.354045,-0.0993996,0.671976,0.447114,0.464689,-0.644775,0.874613,-0.403135,0.0882335,0.125556,-0.0100594,-0.29076,-0.510947,0.600117,-0.0552105,0.353259,-0.445923,-0.773252,-0.853245,-0.147001,0.699169,0.182434,-0.107922,0.553936,-0.972892,-0.750394,-0.964153,0.335384,-0.972892,-0.654591,-0.964153,0.189304
0,0,267,-0.254136,0.743373,0.212849,-0.0990767,0.325837,-0.344492,0.00708408,0.330557,-0.25487,0.801862,-0.222959,-0.59257,0.434544,-0.707816,0.0157852,0.297472,0.880815,0.561652,-0.451878,0.738735,-0.492541,0.627215,-0.723404,-0.748854,-0.596282,-0.649763,0.062881,0.19665,-0.942199,0.66815,0.858683,-0.275692,-0.572454,0.245013,0.858683,0.334908,-0.514994
0,0,268,-0.86751,-0.557547,0.675737,0.217281,0.621425,0.0685279,-0.570492,0.951439,-0.962402,0.658876,0.406698,-0.679163,-0.253816,0.684807,-0.388613,0.426002,0.984586,0.684814,-0.727445,0.166189,0.909367,0.619849,-0.855071,-0.782791,0.285014,-0.239847,0.62231,0.00762603,0.870152,-0.874073,0.0507228,-0.512236,-0.813697,0.494863,0.0507228,-0.512236,0.62216
0,0,269,0.298511,0.469155,0.309054,0.676309,0.343276,0.22363,0.846138,0.758931,0.564197,0.831917,-0.479237,-0.16026,-0.343444,-0.0559837,-0.340476,-0.578489,-0.432405,0.59836,-0.664895,-0.119116,0.235214,0.825474,0.407545,-0.3982,-0.880312,0.474103,-0.841471,0.796798,0.59229,-0.0226067,-0.875873,-0.22169,-0.419524,0.0290383,-0.875873,-0.0638874,-0.237148
0,0,270,0.974241,-0.979637,0.750616,0.368206,-0.406574,0.837019,-0.341872,-0.294977,0.229886,-0.200702,0.448815,0.379027,0.167971,-0.225279,0.620251,-0.200055,0.496763,0.890426,-0.46347,0.718937,-0.36465,0.815161,0.693272,-0.170119,-0.775779,-0.0599116,0.188182,-0.358011,-0.661592,0.317105,-0.0582993,-0.255044,0.673889,0.294892,-0.0366377,-0.255044,0.673889
0,0,271,0.85131,-0.0339626,-0.553935,-0.543263,-0.294603,-0.903285,0.571627,0.420713,0.197473,0.794609,0.534841,-0.630276,-0.947288,0.587968,-0.333419,0.69109,0.126453,-0.313358,-0.542599,-0.163769,0.31367,0.976618,-0.310296,0.663499,-0.469869,0.372739,-0.248224,-0.0332067,0.746126,-0.691904,0.264024,0.942142,0.970444,-0.408192,0.264024,-0.292786,0.156149
0,0,272,-0.3001,-0.274098,0.439795,0.422186,0.337471,0.169503,0.760695,0.888562,0.463829,-0.899204,-0.279159,-0.596578,-0.338257,0.028599,-0.198993,-0.663229,0.384352,-0.0649113,0.140218,-0.249275,0.566358,-0.18811,-0.783899,-0.705918,-0.424758,-0.747445,-0.933394,0.292506,-0.0511702,0.690666,-0.0106838,-0.91151,-0.922922,0.718832,-0.00995976,-0.652415,-0.612788
0,0,273,-0.712056,0.203834,-0.508858,0.938756,-0.82008,-0.722464,0.963121,0.270099,0.415748,-0.290956,0.0455989,-0.169025,0.901842,-0.562816,0.494161,-0.300494,0.743979,0.490643,0.386522,0.0215514,0.611807,0.892152,-0.392992,-0.0628544,0.529929,-0.386153,-0.618184,-0.182302,-0.367587,0.564838,0.880683,0.916583,0.182526,0.564838,0.880683,-0.338249,-0.318807
0,0,274,-0.14149,-0.64166,-0.687016,-0.389928,0.411838,0.523694,0.872353,-0.299779,0.339681,0.649059,0.255775,-0.237291,0.533975,-0.95819,0.678692,-0.162838,-0.283874,-0.118482,0.434344,-0.512063,0.531432,0.383526,0.518258,-0.441233,0.688006,-0.863016,-0.972842,-0.441257,-0.463187,-0.57016,-0.647924,0.448467,0.614237,-0.54115,-0.739518,0.377569,0.614237
0,0,275,0.356834,-0.524922,-0.130006,-0.384463,-0.590536,-0.775969,0.989549,-0.676716,-0.114235,0.404608,-0.737209,0.424276,0.607993,0.5841,-0.185266,-0.582396,-0.710451,-0.16254,0.661517,0.213811,0.237957,0.680034,-0.645573,-0.0292818,-0.994247,0.215461,0.368034,0.263392,-0.325928,0.406865,0.970924,0.797269,-0.770927,0.406865,0.970924,0.135493,-0.770927
0,0,276,-0.518974,-0.169479,-0.657277,0.871605,0.697902,-0.330087,0.567996,-0.849243,-0.397706,0.519331,0.786038,0.807648,0.087818,-0.276702,0.147574,0.349728,-0.765701,-0.130493,-0.503534,-0.730605,0.717687,-0.576502,0.909539,-0.138066,-0.445865,-0.0275153,0.0946126,-0.544391,0.443433,-0.98054,0.809062,0.636295,-0.218462,0.63526,0.809062,0.760064,-0.218462
